<?xml version="1.0"?>
<MethodSetup Method="MLP::MLPBNN">
  <GeneralInfo>
    <Info name="TMVA Release" value="4.2.1 [262657]"/>
    <Info name="ROOT Release" value="6.10/08 [395784]"/>
    <Info name="Creator" value="attikis"/>
    <Info name="Date" value="Wed Nov  1 12:39:11 2017"/>
    <Info name="Host" value="Darwin MacBook-13.local 17.0.0 Darwin Kernel Version 17.0.0: Thu Aug 24 21:48:19 PDT 2017; root:xnu-4570.1.46~2/RELEASE_X86_64 x86_64"/>
    <Info name="Dir" value="/Users/attikis/my_work/cms/lxplus/hltaus/HLTausAnalysis/NtupleAnalysis/src/TMVA"/>
    <Info name="Training events" value="2000"/>
    <Info name="TrainingTime" value="1.10023041e+01"/>
    <Info name="AnalysisType" value="Classification"/>
  </GeneralInfo>
  <Options>
    <Option name="NCycles" modified="Yes">60</Option>
    <Option name="HiddenLayers" modified="Yes">N+5</Option>
    <Option name="NeuronType" modified="Yes">tanh</Option>
    <Option name="RandomSeed" modified="No">1</Option>
    <Option name="EstimatorType" modified="No">CE</Option>
    <Option name="NeuronInputType" modified="No">sum</Option>
    <Option name="V" modified="Yes">False</Option>
    <Option name="VerbosityLevel" modified="No">Default</Option>
    <Option name="VarTransform" modified="Yes">N</Option>
    <Option name="H" modified="Yes">True</Option>
    <Option name="CreateMVAPdfs" modified="No">False</Option>
    <Option name="IgnoreNegWeightsInTraining" modified="No">False</Option>
    <Option name="TrainingMethod" modified="Yes">BFGS</Option>
    <Option name="LearningRate" modified="No">2.000000e-02</Option>
    <Option name="DecayRate" modified="No">1.000000e-02</Option>
    <Option name="TestRate" modified="Yes">5</Option>
    <Option name="EpochMonitoring" modified="No">False</Option>
    <Option name="Sampling" modified="No">1.000000e+00</Option>
    <Option name="SamplingEpoch" modified="No">1.000000e+00</Option>
    <Option name="SamplingImportance" modified="No">1.000000e+00</Option>
    <Option name="SamplingTraining" modified="No">True</Option>
    <Option name="SamplingTesting" modified="No">False</Option>
    <Option name="ResetStep" modified="No">50</Option>
    <Option name="Tau" modified="No">3.000000e+00</Option>
    <Option name="BPMode" modified="No">sequential</Option>
    <Option name="BatchSize" modified="No">-1</Option>
    <Option name="ConvergenceImprove" modified="No">1.000000e-30</Option>
    <Option name="ConvergenceTests" modified="No">-1</Option>
    <Option name="UseRegulator" modified="Yes">True</Option>
    <Option name="UpdateLimit" modified="No">10000</Option>
    <Option name="CalculateErrors" modified="No">False</Option>
    <Option name="WeightRange" modified="No">1.000000e+00</Option>
  </Options>
  <Variables NVar="4">
    <Variable VarIndex="0" Expression="L1Tks_Pt" Label="L1Tks_Pt" Title="L1Tks_Pt" Unit="GeV/c" Internal="L1Tks_Pt" Type="F" Min="1.82206881e+00" Max="2.26117944e+03"/>
    <Variable VarIndex="1" Expression="L1Tks_Eta" Label="L1Tks_Eta" Title="L1Tks_Eta" Unit="" Internal="L1Tks_Eta" Type="F" Min="-2.51387382e+00" Max="2.50433183e+00"/>
    <Variable VarIndex="2" Expression="L1Tks_POCAz" Label="L1Tks_POCAz" Title="L1Tks_POCAz" Unit="cm" Internal="L1Tks_POCAz" Type="F" Min="-2.20277004e+01" Max="2.06650105e+01"/>
    <Variable VarIndex="3" Expression="L1Tks_ChiSquared" Label="L1Tks_ChiSquared" Title="L1Tks_ChiSquared" Unit="" Internal="L1Tks_ChiSquared" Type="F" Min="3.22723351e-02" Max="1.17991040e+03"/>
  </Variables>
  <Spectators NSpec="0"/>
  <Classes NClass="2">
    <Class Name="Signal" Index="0"/>
    <Class Name="Background" Index="1"/>
  </Classes>
  <Transformations NTransformations="1">
    <Transform Name="Normalize">
      <Selection>
        <Input NInputs="4">
          <Input Type="Variable" Label="L1Tks_Pt" Expression="L1Tks_Pt"/>
          <Input Type="Variable" Label="L1Tks_Eta" Expression="L1Tks_Eta"/>
          <Input Type="Variable" Label="L1Tks_POCAz" Expression="L1Tks_POCAz"/>
          <Input Type="Variable" Label="L1Tks_ChiSquared" Expression="L1Tks_ChiSquared"/>
        </Input>
        <Output NOutputs="4">
          <Output Type="Variable" Label="L1Tks_Pt" Expression="L1Tks_Pt"/>
          <Output Type="Variable" Label="L1Tks_Eta" Expression="L1Tks_Eta"/>
          <Output Type="Variable" Label="L1Tks_POCAz" Expression="L1Tks_POCAz"/>
          <Output Type="Variable" Label="L1Tks_ChiSquared" Expression="L1Tks_ChiSquared"/>
        </Output>
      </Selection>
      <Class ClassIndex="0">
        <Ranges>
          <Range Index="0" Min="1.8317725658416748e+00" Max="2.2611794433593750e+03"/>
          <Range Index="1" Min="-2.5138738155364990e+00" Max="2.5006675720214844e+00"/>
          <Range Index="2" Min="-1.3064806938171387e+01" Max="1.4961882591247559e+01"/>
          <Range Index="3" Min="3.2272335141897202e-02" Max="1.0096263427734375e+03"/>
        </Ranges>
      </Class>
      <Class ClassIndex="1">
        <Ranges>
          <Range Index="0" Min="1.8220688104629517e+00" Max="3.2814163208007812e+01"/>
          <Range Index="1" Min="-2.5016613006591797e+00" Max="2.5043318271636963e+00"/>
          <Range Index="2" Min="-2.2027700424194336e+01" Max="2.0665010452270508e+01"/>
          <Range Index="3" Min="6.5195962786674500e-02" Max="1.1799104003906250e+03"/>
        </Ranges>
      </Class>
      <Class ClassIndex="2">
        <Ranges>
          <Range Index="0" Min="1.8220688104629517e+00" Max="2.2611794433593750e+03"/>
          <Range Index="1" Min="-2.5138738155364990e+00" Max="2.5043318271636963e+00"/>
          <Range Index="2" Min="-2.2027700424194336e+01" Max="2.0665010452270508e+01"/>
          <Range Index="3" Min="3.2272335141897202e-02" Max="1.1799104003906250e+03"/>
        </Ranges>
      </Class>
    </Transform>
  </Transformations>
  <MVAPdfs/>
  <Weights>
    <Layout NLayers="3">
      <Layer Index="0" NNeurons="5">
        <Neuron NSynapses="9">
          -1.5875090067350315e+00 1.5305176690175202e+00 9.1354082876657661e-01 9.8342205745321305e+00 -2.9287559127892218e+00 -1.6038129742851812e+00 -8.8918459493345459e-01 2.8351534891765100e+00 -3.7677937878460643e-01 
        </Neuron>
        <Neuron NSynapses="9">
          -5.6200095478992484e-01 -1.6709433481615216e-01 -4.0215897154977714e-01 -6.4540477150320782e-02 -4.9400354080120792e-02 -5.8121741695357165e-01 4.5156786161631213e-01 5.7386155486853788e-02 1.5618735707621507e+00 
        </Neuron>
        <Neuron NSynapses="9">
          7.6701763550930058e-01 4.7944028774920028e-01 -2.7585670786270550e-01 2.3938663008951772e-01 5.3949294894126221e-01 1.2894586443458547e-01 -1.2092385773043133e+00 1.0018877350716979e-01 9.6183084539056818e-01 
        </Neuron>
        <Neuron NSynapses="9">
          -4.3565959770954690e+00 1.0349164027804016e+00 -2.2329181426529100e-02 -1.8109652860238006e+00 4.5177989873682534e-01 -6.1221548736184739e-01 -2.0648436512774429e-01 1.5162790693167381e+00 -2.1512418380867695e+00 
        </Neuron>
        <Neuron NSynapses="9">
          -4.8112038658938232e+00 4.4339466354766657e+00 -1.0958214853579329e+00 8.2578101923923253e+00 2.3624962852821572e+00 1.2113770647557953e+00 2.0896431101503863e+00 -1.8462374860450440e-01 -1.5703001384744395e+00 
        </Neuron>
      </Layer>
      <Layer Index="1" NNeurons="10">
        <Neuron NSynapses="1">
          -5.0670956932871274e+00 
        </Neuron>
        <Neuron NSynapses="1">
          1.0008486012203253e+00 
        </Neuron>
        <Neuron NSynapses="1">
          5.7729034790220046e-01 
        </Neuron>
        <Neuron NSynapses="1">
          9.9898005001105261e+00 
        </Neuron>
        <Neuron NSynapses="1">
          5.5620505020250199e-01 
        </Neuron>
        <Neuron NSynapses="1">
          1.1980693895308856e+00 
        </Neuron>
        <Neuron NSynapses="1">
          1.1306096123371612e+00 
        </Neuron>
        <Neuron NSynapses="1">
          -1.7272035212016482e-01 
        </Neuron>
        <Neuron NSynapses="1">
          -9.7717284121232195e-01 
        </Neuron>
        <Neuron NSynapses="1">
          -1.9221883383945264e+00 
        </Neuron>
      </Layer>
      <Layer Index="2" NNeurons="1">
        <Neuron NSynapses="0"/>
      </Layer>
    </Layout>
    <InverseHessian NElements="3025" NRows="55" NCols="55">
      <Row Index="0">
        3.1997794225456659e+02 3.1370114216258894e+03 1.3656608316810416e+03 -1.4828043207002182e+02 -6.3305380219723133e+02 -1.0571144727286025e+02 1.4112303667064243e+03 -2.0636010538709922e+02 -6.4857596136770482e+01 6.6859525547624523e+00 -3.4973542219564152e+01 4.7765996174969395e+01 -5.0389789516354000e+00 4.4692895953245355e+01 -6.5693114382239469e+02 -1.5411564569154061e+02 -1.6004331988858812e+03 -8.8391838680216246e+00 -1.0538890554414204e+01 -3.0391733752828810e+02 -1.0896349562431693e+02 8.0670377707383611e-01 2.1465729142920145e+02 -3.6867603470365532e+02 5.6948291480218563e+02 -3.0815098544330618e+02 -7.8151794168600928e+00 4.2486529028808398e+01 -4.1707678315634854e+02 8.5232518479458861e+02 -1.2347934062118231e+01 -4.9014017372387343e+02 -1.2308491578376961e+03 6.7233417331708642e+02 -9.9593753707799294e+02 -1.4007393849020332e+01 3.5012958839296914e+02 2.3645273688669936e+03 5.8296131423080169e+02 -1.5071350167413425e+02 3.8926208155632401e+02 1.3208516035756184e+03 1.0003053920057414e+03 8.8188351940388003e+01 -7.7143493052883557e+01 -1.4074490865825015e+02 2.0817858308322391e+02 9.5893630053629477e+02 2.1272345523384277e+02 3.3221533046090610e+02 -2.5127001141580763e+01 -3.5029820688679320e+02 -9.8827447229038955e+02 -1.5728227265105954e+01 -1.6327000980754357e+02 
      </Row>
      <Row Index="1">
        3.1370114180590308e+03 2.0623922440838796e+05 3.9773148565741605e+04 -1.5530341526555021e+03 1.3947742327691351e+04 1.1776045194034799e+04 4.2357002094247728e+04 -4.8958038498310052e+03 -8.4344967577849673e+02 3.3784740185240359e+01 -1.1815561319340152e+03 -1.3091442244497008e+04 -2.4125046906975491e+01 -2.6475235772586889e+03 9.2885366494022310e+03 3.7098141012342585e+03 1.1367496454264416e+04 -1.3239612328476167e+02 -8.5867887587094202e+01 3.6233679017693532e+02 -5.3035077727277630e+03 -8.4016307989823503e+01 4.0621980760600854e+03 -1.6984308518879516e+02 -5.3698695164557230e+03 6.8665077531439292e+03 -1.4950613806707261e+02 1.4792187474936804e+02 -1.2150388105534330e+02 1.0146803412272235e+04 -1.0143159612928389e+02 1.0466061689301881e+04 1.4653956500781856e+04 -2.7730414141863530e+03 1.0643311195195900e+04 2.9242568588834365e+02 3.2578427946146749e+03 1.5789938124034402e+05 2.2054672100950640e+04 -1.5340938665290932e+03 -5.7654591963723651e+03 3.4290247861603275e+03 5.2400197064382963e+04 6.4348149930014085e+02 -6.6775886627163527e+02 -7.9526244384240886e+02 -8.9447030915835334e+04 -9.3470866722780047e+03 1.0178898576277577e+03 1.7542415834421037e+04 1.4791343073859738e+04 8.1761681362857089e+03 -6.0738599521425440e+03 -1.9730167073505302e+02 3.4635909295500504e+04 
      </Row>
      <Row Index="2">
        1.3656608179948544e+03 3.9773148178830867e+04 3.1143798864728853e+05 -7.2563363772322919e+02 -1.1678920278158679e+04 1.2575071186897549e+02 -4.8279800762949162e+03 1.7184800678987944e+04 1.4994963684894524e+03 4.5376080371110888e+01 -3.6339701012311066e+03 -3.2827143603926983e+04 -1.4438094424873921e+02 6.7100411129272343e+03 5.4415173787719570e+04 -1.8998253353522202e+03 9.4607877646708512e+03 -2.8498794151489221e+02 -1.4417082006332930e+02 -1.1016975830883182e+03 -1.3662187793679512e+04 -5.3449678867060939e+01 6.4435961060933187e+03 -4.4705183601942144e+03 8.0761795484796139e+03 1.2461402853407850e+04 -2.9751673141654089e+02 3.0438654049175045e+02 1.5955142985672081e+04 1.6249917625895707e+04 -3.0339775560907225e+02 3.9699265908252637e+03 3.0909852696215305e+04 -5.7597900072139291e+03 -2.9820307707005311e+04 1.0399536316670562e+03 1.5636941307124146e+03 4.7581657032236340e+04 1.5239324736141227e+05 -9.4073814734223345e+02 -8.2906518675475381e+03 -6.2431129263399926e+04 -2.0214413240448528e+04 -1.2356699173388723e+04 2.2712734094949246e+03 -1.3221022997804996e+03 -2.9502246586701622e+04 7.7010983842634028e+04 7.6795959174513155e+02 4.4096400135120399e+04 5.5612750592370474e+04 4.5440024163792723e+03 -1.5444554168797247e+04 -5.9178963552087589e+02 -8.4479833399386862e+03 
      </Row>
      <Row Index="3">
        -1.4828043209466244e+02 -1.5530341566271968e+03 -7.2563364811701592e+02 1.3964526270754769e+02 2.0799701111033491e+02 5.7167481822975810e+02 -5.2272278868131252e+02 2.7949046368658719e+02 6.9604603070386773e+01 -4.4772553348980333e+00 2.4061955016090963e+01 3.9153973370297351e+01 2.2899674183666967e+00 6.3995804302692463e+01 3.4844626816655364e+01 9.9241328590778721e+01 -1.9252534012829389e+02 6.4260334800932064e+00 6.9993445930365397e+00 2.6092697548620492e+02 4.5082106056479837e+01 9.7741090864895941e-01 -1.4884626640279953e+02 2.2526188664838099e+02 -3.9929058100060155e+02 6.0100827265484656e+02 6.7417895416764093e+00 -2.9372239912646826e+01 4.2132830325711063e+02 -6.8282545679136933e+02 4.1018479206567893e+00 2.1476583645092637e+02 1.5497273503585666e+02 -4.8119450871463141e+02 4.4972605766514846e+01 1.1276146978238710e+01 -1.7028525525646575e+02 -9.7040892519394765e+02 -2.9483348716653700e+02 1.3669914403810333e+02 -1.7854563851881790e+02 3.8498895963328323e+01 -3.3292544447545771e+02 -2.1943252704789342e+02 8.0244840984509963e+01 9.6315200715532796e+01 -4.6792267178389994e+02 -5.4004481561315322e+02 -1.6828947635044304e+02 2.2043981090434983e+02 2.3775964137115210e+01 7.2796552176984903e+01 5.5633970827516862e+02 1.1767267964370225e+01 1.3354645359902770e+02 
      </Row>
      <Row Index="4">
        -6.3305381704205877e+02 1.3947742017492928e+04 -1.1678920203547248e+04 2.0799702210536907e+02 9.7979714379756735e+05 -5.1789192617801302e+04 -1.5613951804837765e+04 1.3114862934366276e+04 1.1053731899953885e+02 -1.1367651618817847e+01 -1.2926007505782724e+02 4.7386113449423283e+03 1.1475114298038278e+01 -1.1172920803272267e+04 -1.3577882598240860e+04 3.4229114910215139e+03 1.0390364151598071e+04 -7.6714452293476771e+00 8.4580154890427366e+00 2.5516789950174639e+03 1.0361214000723191e+03 -8.3365041431298792e-01 4.9259741192243528e+03 2.5793300652891412e+03 -5.9519579355545538e+03 2.4815571842193604e+03 2.2917985253507368e+01 -6.4878242535512967e+01 4.2783205837860041e+03 -3.0121839545675130e+03 3.0766405228470916e+01 -3.1492133261523923e+03 -2.9591181321675836e+03 -6.6953841783553901e+02 -1.2129135820811352e+04 2.1793565813206669e+01 -6.7935167571101124e+02 7.9323064698230555e+03 -1.2876885052806942e+04 2.1870489782144617e+02 -4.7114097863510833e+03 -1.7297997388038151e+04 -1.4255259198060570e+04 -1.2587533576033569e+04 1.3767640924708303e+02 2.4666977120077604e+02 -2.8509821327265712e+04 1.1875842651328589e+04 -3.6455126670611185e+02 3.8737851237723829e+04 3.1925274574287403e+04 -2.0820900897899559e+04 -1.9206658009552400e+04 9.7486924710796252e+00 -2.9620193661636400e+04 
      </Row>
      <Row Index="5">
        -1.0571147761342404e+02 1.1776044684042508e+04 1.2575127528367011e+02 5.7167484376108951e+02 -5.1789192095547915e+04 4.0996441323782917e+05 -1.7250769074973032e+04 7.3214538946734567e+04 -2.6156212262173035e+03 -1.0878728666092373e+01 -2.7157209702893874e+03 -1.1004175153487919e+04 1.0412087353574243e+01 -3.8831580658298051e+04 6.3268803060833365e+04 -6.9380495133250952e+02 6.0291925418966843e+04 1.6011951712457125e+02 1.4559413934184704e+01 2.9158730547319410e+03 -1.3943173656752911e+03 -4.7956454862567597e+00 9.2097244681869342e+03 -2.4044983700690209e+03 1.6393394847858281e+03 3.1064047894954681e+04 9.2489091342091896e+01 7.2654850769681460e+01 1.1045971167094873e+04 2.1152206901290247e+03 5.3202202448206378e+01 1.0910825992260225e+04 4.2822103885420409e+04 -6.3218614240895658e+02 -2.7362753439257649e+04 -3.8048814491300448e+02 -3.6696496559452861e+01 -4.1000192711777891e+03 -3.5943275346351569e+04 5.9245513751339024e+02 -4.0332189444508636e+04 3.0889989858874877e+05 -4.5158277558518639e+04 -6.9724704926423947e+04 -2.9694637615703132e+03 -1.3362429670797844e+01 -6.8179302195445358e+04 1.6660072617313479e+04 -5.3664280611762319e+02 1.9216981809638062e+05 -9.0896258832133244e+03 -5.4015467804799628e+04 -3.6264524310574678e+04 1.6151932736069270e+02 -7.9164836106351024e+04 
      </Row>
      <Row Index="6">
        1.4112303712326620e+03 4.2357001943270756e+04 -4.8279800170656381e+03 -5.2272279474008144e+02 -1.5613951663382351e+04 -1.7250769297754508e+04 3.5578791979992884e+05 4.9478571981306741e+03 -6.9817868337043279e+01 4.5210382529241251e+01 -7.6233156337916412e+01 5.2069559877765623e+03 -7.8170745807543497e+01 -8.5009445833258214e+03 -1.2018317885921337e+04 -1.4532969274977222e+03 1.2320773929891846e+04 -9.5956648475504906e+01 -4.3774618443538202e+01 2.8972354876049653e+03 -3.7076657317080299e+03 1.3879018284923097e+02 5.9792560078102542e+03 -1.0118869250227940e+03 -4.4822141674717459e+03 -1.7160832435846329e+04 1.1740645574763620e+01 3.6740665761061092e+02 7.3304752468391707e+03 -1.5710302605500187e+03 -1.9426888913376257e+02 -1.5704849681743008e+04 -4.3206521497795584e+03 1.4279870550708183e+03 1.1924915832734385e+04 1.5083683662682688e+02 1.6588911326229500e+03 6.3240894952707924e+04 7.6463835689506068e+03 -6.4770786160690523e+02 1.6046357424008194e+04 1.2539472597723077e+04 3.1616776710935601e+05 -2.2868416879992819e+03 1.0208755474660984e+02 -1.1401158611567380e+03 1.1549657136692014e+04 -1.1957122466262181e+04 4.8572352149414291e+02 5.6456053401288736e+03 1.5211991542426884e+04 -8.3197222641479384e+04 -1.5848887248575516e+04 -1.5604213459728709e+02 2.2111066553281635e+04 
      </Row>
      <Row Index="7">
        -2.0636010269135275e+02 -4.8958053648876248e+03 1.7184800559333580e+04 2.7949045792543757e+02 1.3114862322285771e+04 7.3214538325596659e+04 4.9478558758831423e+03 9.0684322454299522e+05 -1.3652211390555476e+02 5.4007631511807253e+00 -1.5919595883434563e+03 -3.2678718611240429e+03 -5.5808704035410974e+00 1.0156354477129720e+04 2.8601221266241744e+04 -6.7664125395170413e+02 -6.9677307657087527e+04 6.2147639235690491e+01 -9.8127212114195572e-01 1.7762864825646852e+03 1.6801958285209730e+02 1.6900903792298436e+01 -2.6909942966985982e+03 -1.6163817038711568e+03 1.5448572980999452e+03 1.7163397399544716e+04 2.3072626170251169e+01 8.7179443559658566e+01 6.4065845122281225e+03 -1.9375615902844947e+03 4.4115518593812624e+01 -3.4712044529088344e+03 -3.4146830545864486e+03 -3.4408854236837315e+03 8.1623848146855307e+04 -1.0062660134001644e+02 -1.3111148626378517e+02 -2.9664136458565918e+02 -2.4056795445539510e+03 3.0314851453112249e+02 1.1808108625158551e+04 -1.0617511968503248e+04 -4.7873565498165462e+03 9.6353751115066058e+04 -2.0860567064543602e+02 -1.0358835513659494e+02 -1.3964674848748915e+04 1.0632973198042080e+04 -2.3819696394981474e+02 -8.5196425408890544e+04 -6.0786557830005688e+04 -7.9110812870377849e+03 -1.8977804268326261e+05 4.9432260321880840e+01 -1.0864097409057058e+04 
      </Row>
      <Row Index="8">
        -6.4857595677538782e+01 -8.4344967883868321e+02 1.4994963597584001e+03 6.9604602639956113e+01 1.1053730310616083e+02 -2.6156212584455188e+03 -6.9817872607917366e+01 -1.3652217417950445e+02 1.6524475775974893e+03 -4.1570275205855822e-01 4.9565502153466974e+02 2.2919113910523820e+03 1.0913922746924600e+01 -4.7088785164210503e+02 -1.3952085025421984e+03 -6.9692164836014854e+00 2.2284792716465890e+03 1.3093268962019742e+01 3.8841902924159513e+00 -2.2899675696818656e+02 8.7536759992999600e+02 1.7917687699052789e+00 -5.9541612222666117e+01 5.4855302255003573e+02 -5.8923844889090651e+02 1.1721352741718292e+03 1.3997959750090558e+01 -2.8040050798714798e+01 -3.1587643213565627e+02 -1.7925397151578147e+03 7.0994181348526131e-01 -3.0823340601641848e+02 8.9787743701686921e+01 2.9437014042856725e+02 8.0301872533973651e+01 -5.9018701458119779e+01 -8.5342773614184992e+01 -1.0715519775865748e+03 4.2104903042671676e+03 6.6326974954004541e+01 3.0967993512181874e+02 -3.7394185497177847e+02 1.0957566000365389e+03 4.2381341102702623e+02 1.6001286179637746e+03 7.8513778874950859e+01 2.0153076051177109e+03 2.5109835242846534e+03 -9.0558854265515151e+01 -8.1413827348921109e+02 -1.3899865484041717e+02 1.8786917908499146e+02 -5.1086685157829709e+02 2.8078625715242413e+01 5.2739699665295166e+02 
      </Row>
      <Row Index="9">
        6.6859525546289706e+00 3.3784740394747658e+01 4.5376080724307840e+01 -4.4772553343806365e+00 -1.1367651185255454e+01 -1.0878727953992211e+01 4.5210382522457273e+01 5.4007630642955462e+00 -4.1570277102994346e-01 3.4082314527348923e-01 -2.4357058604832273e+00 1.4746672703582242e-01 -1.1434847428722907e-01 -6.1632213847407584e+00 1.3885524677128842e+01 3.1737869709468498e+00 -2.3638653715250257e+01 6.0370302763955323e-02 -3.9047788800345273e-01 -6.5325136316942300e+00 6.1526258691069753e+00 4.4443572943079442e-02 4.8706402369555235e+00 -6.0348885846897513e+00 1.5527309127649369e+01 8.1430091748989071e+00 -2.2212673074358236e-01 1.6873545874397804e+00 5.5240954680034182e+00 2.1620631007963713e+01 -3.5444626074277613e-01 -8.3023096027554608e+00 -1.8005536104845874e+01 1.8410469560386261e+01 6.5475719741165150e+00 -1.2210809111021712e-01 7.9248012910693779e+00 4.4735504506858163e+01 2.5703522329089157e+01 -4.5426531297419661e+00 4.3161401689683885e+00 -1.7112364516545853e-01 3.5618557024170883e+01 -7.4146010563421445e+00 -4.3506094564858433e-01 -4.8603007774671996e+00 1.8304860617551768e+01 3.4735337388352875e+01 6.3417141408220274e+00 1.4916439261474975e+01 1.5855335085838185e+01 -1.7107666034034807e+01 -4.3678746075392896e+00 -1.1091655400673886e-01 -1.6645730811291961e+00 
      </Row>
      <Row Index="10">
        -3.4973540818380101e+01 -1.1815561245404131e+03 -3.6339701128937959e+03 2.4061953861917345e+01 -1.2926008384115994e+02 -2.7157209464078492e+03 -7.6233191310646362e+01 -1.5919597626292489e+03 4.9565502063707117e+02 -2.4357058111527166e+00 2.1140430791546191e+03 2.4994359766217253e+03 3.2607738846495260e-01 -4.7061233281409477e+02 -7.3460289989919402e+03 -3.0705804992932826e+02 2.4547455411050469e+03 3.8086205621540747e-01 -5.1396154132216907e+00 -7.5265073154987806e+02 -1.2908306693310622e+03 -8.3202211241051582e+00 -2.3819584505735475e+02 3.8790870289154973e+03 -2.2742464550838922e+03 6.5788175792321563e+03 3.8088878206242953e+01 -3.8485326188686727e+01 -2.2516511726638728e+03 -3.8938593293356466e+03 -1.8303732722806988e+01 -1.2066253496747413e+02 4.3823820422260542e+02 6.9936574445549013e+01 1.0745602596281221e+03 1.1508575487917868e+02 -6.2805443366446340e+01 -1.0889241220843774e+03 -2.2467422009702341e+03 9.6628283105923991e+00 -1.8488086108962307e+01 4.3078889226543906e+03 1.0914975658364615e+03 1.6766441362445144e+03 6.0713475984725710e+02 6.0160176310873098e+01 1.0948981900635647e+04 6.6449342622653603e+02 -9.9764907570564446e+01 -2.4695362019880731e+03 -4.3029430797847026e+03 -3.4411039844534116e+03 -2.5382233299669579e+03 2.1615837390671249e+01 -2.6847387539835763e+03 
      </Row>
      <Row Index="11">
        4.7766001201446457e+01 -1.3091442282484426e+04 -3.2827143616566296e+04 3.9153969098791968e+01 4.7386113121639937e+03 -1.1004175211112870e+04 5.2069560250138875e+03 -3.2678720465767619e+03 2.2919113911938384e+03 1.4746689584080741e-01 2.4994359867478838e+03 1.6805978315912449e+04 2.4785541381794268e+01 1.3545393593513757e+03 -2.3948895513229072e+04 4.1641312423732597e+02 -1.0400206718899310e+04 3.4330125794938624e+01 -4.5097854856430786e-01 -6.3029255309816620e+02 4.7667708895980204e+03 2.3038700995376008e+01 -1.1438174617004697e+03 5.9722036706655999e+03 -4.1237124595168279e+03 1.4762877644509077e+04 5.8710357497475343e+01 -6.3434504016957519e+01 -3.1788257344499102e+03 -7.7365794925508835e+03 -3.5214407803751570e+01 2.1918901623882448e+03 -1.7473731026610727e+04 1.2521082029462495e+03 -5.3553423896548229e+03 -1.9824904902705981e+02 -1.6790550680467387e+00 -1.4734537707966214e+04 -1.4635461799752542e+04 7.6744864670036925e+00 -1.8106284265154682e+03 2.3108809092149764e+04 1.1674891751298304e+04 3.7297961753406253e+03 2.2056726954623050e+03 1.4162716148810429e+02 1.2167867683919843e+04 1.5805833327429194e+04 -1.4610244089711887e+02 4.2387097406133216e+02 -9.9412397829232650e+03 -9.1651960022616049e+02 -5.4103649221378582e+03 6.0067698240595000e+01 7.0137278431493096e+03 
      </Row>
      <Row Index="12">
        -5.0389789483876974e+00 -2.4125046766645809e+01 -1.4438094435763284e+02 2.2899674162837154e+00 1.1475114127903453e+01 1.0412087235102046e+01 -7.8170745774926175e+01 -5.5808708063235599e+00 1.0913922750264149e+01 -1.1434847416263083e-01 3.2607738762065785e-01 2.4785541448234955e+01 2.8559852783124490e-01 5.7963426577168136e+00 -1.3378351724840002e+01 3.9454566748963771e+00 -7.5631893741956446e-03 2.5556438322622871e-01 2.8790926799815075e-01 -1.0515316559566377e+00 2.0185264587389440e+01 -4.2032048150077550e-02 -5.1937114933355133e-01 -8.2983609641880065e+00 -1.0743859868531075e+01 -2.8116504448349588e+01 1.1325574878935996e-01 -1.0364386730755275e+00 -1.7752110971760953e+01 -2.0322391437930065e+01 3.5144059023105567e-01 5.7024577019894842e+00 -9.3810058216614891e+00 -5.2242369672793334e+00 1.2208162777543809e+01 -1.1432568105373686e+00 -5.7613480428253112e+00 -5.2056546195763801e+01 -3.3803655407686975e+01 2.4787741181448575e+00 -4.0431457949744072e+00 2.2083878756802108e+01 -5.4286356834998756e+01 3.3875177660391564e+00 9.9032207256678397e+00 3.3447009943852395e+00 -6.7475561537337392e-01 -3.8490802108939796e+01 -3.5344363890969825e+00 -1.7636417546159823e+01 -2.6637993405709334e+01 2.1032146753536434e+01 1.6269294807089956e+01 5.2413702283968477e-01 -1.9214913684120101e+00 
      </Row>
      <Row Index="13">
        4.4692884115500355e+01 -2.6475238197490698e+03 6.7100411544608160e+03 6.3995812968941664e+01 -1.1172920799970627e+04 -3.8831581083883022e+04 -8.5009446734837820e+03 1.0156354913381445e+04 -4.7088784023005428e+02 -6.1632217237092846e+00 -4.7061232696008352e+02 1.3545393771972069e+03 5.7963427927440545e+00 9.8732899026714533e+05 -4.9054982362641022e+03 -1.0436791751491837e+03 1.0449572416603565e+04 -4.6817823322074233e+01 -2.0253901883261278e+00 9.6657520136278458e+02 -3.8488600561578060e+03 -4.8389759284570317e+00 2.2812302472591400e+03 2.1446150606113406e+03 -3.0224107366562821e+03 2.6600675933957100e+03 3.6412843964644708e+00 -4.7064767068865805e+01 -8.7334613495262238e+02 -3.0414405326204869e+03 1.9826417508004184e+00 1.5476324323558001e+03 -4.4081708976431401e+02 4.4460955298536101e+02 -8.9674843066118192e+03 1.1955592521075027e+02 8.6754482233873027e+00 -1.4445199310808468e+04 -8.1501704546909896e+03 6.1954230735435061e+01 -8.0292443292371463e+03 -1.9551182599258347e+04 -1.2019899811998224e+04 -9.8451702882328100e+03 -3.6938653569196629e+02 1.2634619156754445e+02 -1.8878446885597281e+04 1.3673312927250850e+04 -1.1558682049627168e+02 3.2955200565427425e+04 2.6390461612829960e+04 -1.6665537185409317e+04 -1.3597807983162322e+04 -6.5862640776224609e+01 -2.3665987046002574e+04 
      </Row>
      <Row Index="14">
        -6.5693115518226148e+02 9.2885368198404321e+03 5.4415173724975997e+04 3.4844636009330998e+01 -1.3577882607176900e+04 6.3268802666764743e+04 -1.2018317719838946e+04 2.8601221615973802e+04 -1.3952085093481073e+03 1.3885524320120567e+01 -7.3460290308821750e+03 -2.3948895526332177e+04 -1.3378351660041087e+01 -4.9054982578509953e+03 1.3155934649240365e+05 -4.1075698384174611e+03 8.1633771338149905e+04 2.9033115290388236e+02 5.2740895794413518e+00 8.9709437414267916e+02 -1.2814797776175546e+03 -8.0355383949134236e+00 2.2181206885576248e+03 -8.7040114154608600e+03 1.3409851887308527e+04 1.5305455574333668e+04 9.9744734827138018e+01 3.6648772266212268e+02 1.0697657024345966e+04 1.5777701202258200e+04 1.6065843358180848e+02 -4.8406141781532060e+03 6.9559039589545006e+04 -1.3700915136525168e+03 2.5669473560897983e+04 -6.9912874925827009e+02 -3.5345619180705506e+02 2.4658003842820570e+04 3.4553620875302458e+03 1.6487256324450487e+02 2.8408670730231679e+03 -9.5369212295059377e+04 -2.9624143544268096e+04 -2.7066731784842399e+04 -2.0110729062394707e+03 -6.4621779217055541e+02 -1.6583059762852761e+04 1.0144220948562570e+04 4.4671048770114430e+02 1.5865797243922716e+04 5.7229601276960893e+04 1.0069013038571276e+04 4.2261912357320725e+04 2.2868598577115171e+02 -1.1062087311783138e+04 
      </Row>
      <Row Index="15">
        -1.5411564492257500e+02 3.7098140826559179e+03 -1.8998253230717510e+03 9.9241327842715435e+01 3.4229115034593269e+03 -6.9380495821203067e+02 -1.4532969016341776e+03 -6.7664108028649207e+02 -6.9692152504003388e+00 3.1737869807943753e+00 -3.0705804465148782e+02 4.1641313239557996e+02 3.9454566583142419e+00 -1.0436791662652977e+03 -4.1075698763036635e+03 3.4238613600973040e+03 -1.7363700793720782e+03 1.1664517406985031e+01 -1.1238937155554595e+01 1.4659649008767622e+03 1.0244944179846207e+03 -7.7900583709924547e+00 -1.2984328675270081e+03 7.1165113114848577e+02 -4.0096943552477751e+03 6.2442665525525808e+03 -1.3945520260029298e+01 -7.6021446545445528e+00 2.8671109563344357e+03 -2.2097390209133255e+02 -3.3159405495943872e-01 2.0716916631700342e+03 -2.3738133038859623e+03 -1.5910102974523834e+03 -1.9004599504582584e+03 2.5225973035443388e+01 -1.5922635373393246e+02 6.5027776476571153e+03 2.8060377636365533e+03 9.5652508521816983e+01 -1.6310987108969130e+03 4.4831562111985477e+03 1.8079064727780656e+03 7.8725539253387433e+02 1.7566121171116265e+01 4.9141246118713909e+01 -4.3675425250606722e+03 -2.5943702829492086e+03 -1.5945946067022942e+02 2.0179184350635180e+03 -7.0340967038035387e+02 -5.9713754430474046e+03 -8.6164025636341000e+02 1.6386127661802263e+01 5.1834794992966663e+03 
      </Row>
      <Row Index="16">
        -1.6004331966887369e+03 1.1367495484312916e+04 9.4607877567717223e+03 -1.9252534390692500e+02 1.0390363788285293e+04 6.0291925234234019e+04 1.2320772990941863e+04 -6.9677307594987331e+04 2.2284793126889836e+03 -2.3638653660338150e+01 2.4547456544796632e+03 -1.0400206586409467e+04 -7.5629217996211473e-03 1.0449572158488678e+04 8.1633771091147326e+04 -1.7363701957829180e+03 8.5797580679644644e+05 -2.3847443506844317e+02 -3.4619918367272476e+01 6.5154624751012279e+03 -9.3141698883636273e+03 1.4004143725818068e+01 -1.8303490760922432e+03 1.3740702702820767e+04 7.5413864083006047e+01 1.5084912490457296e+04 -1.6284124343706208e+02 1.7602300944726574e+02 2.2060372962118377e+04 -1.0082685224095589e+04 2.5155818951984455e+02 -2.9746415003972506e+03 2.1063395144697349e+05 -7.4737939561016919e+03 3.2736096267929301e+04 4.5085474745847364e+02 -1.4412486227503357e+03 3.9273611482302549e+04 -2.1851767453992168e+04 1.1708367787600384e+01 9.1088220819502603e+03 1.0465717649961938e+04 6.1324841059522441e+02 6.9442009487022646e+04 2.5566332554348351e+03 -2.7887532208129630e+02 -1.8898165216674257e+04 -1.2759025414551790e+04 6.3391441733815554e+02 -6.0895594985399090e+04 -5.2585384035837546e+04 -4.0838634584469546e+03 -1.3003591308109403e+05 -4.4737815493454013e+02 -4.3562011752183507e+03 
      </Row>
      <Row Index="17">
        -8.8391838710878954e+00 -1.3239612231793487e+02 -2.8498794210741295e+02 6.4260334805931612e+00 -7.6714454932734952e+00 1.6011951511235449e+02 -9.5956647265123735e+01 6.2147639662426513e+01 1.3093268934867092e+01 6.0370302654889407e-02 3.8086198735330612e-01 3.4330125775980655e+01 2.5556438308019980e-01 -4.6817823587327894e+01 2.9033115280115999e+02 1.1664517551553217e+01 -2.3847443466146069e+02 9.2423015931964549e+00 6.0824591900708924e-01 1.4429688014816648e+01 3.6220872647222791e+01 -2.8451099829124984e-02 -4.7958481097011827e+01 7.3090816971206095e+01 -2.7828023392507703e+01 6.2601260555561748e+02 6.0571116525960917e+00 -5.1687181506716462e-01 -6.3311986002577079e+01 4.0104248765011242e+01 1.0270890979659204e+00 1.8110451857734247e+01 1.1319009784632668e+01 3.4831944972567925e+01 -1.6959792063174973e+02 -1.3381322356155980e+01 -9.1933926952703207e+00 -1.5356399091766713e+02 3.1017605758387337e+01 6.9921207727487529e+00 -1.4804506087040977e+01 -1.8921095860107710e+02 -3.9861716340749801e+01 -7.2429023724946092e+01 3.0654031529313284e+00 3.3200240076697742e+00 6.7329285648257596e+01 -1.4643364432495218e+00 -8.4780136822297028e+00 6.0319922888776141e+01 1.0373156767282211e+02 -4.7615572679121996e+01 1.8744102756786310e+02 1.1349449622281359e+01 -1.1360447486798307e+01 
      </Row>
      <Row Index="18">
        -1.0538890552780501e+01 -8.5867887672919750e+01 -1.4417082066229318e+02 6.9993445911386711e+00 8.4580148093245953e+00 1.4559412761198562e+01 -4.3774618355268586e+01 -9.8127245882237446e-01 3.8841903126473980e+00 -3.9047788793069582e-01 -5.1396153631016857e+00 -4.5097833065684745e-01 2.8790926816751389e-01 -2.0253907256737875e+00 5.2740891513240058e+00 -1.1238937126496921e+01 -3.4619918575255724e+01 6.0824591911922654e-01 9.9124456358620705e-01 6.8948938209975639e+00 1.2722715142617460e+01 6.8515295565661882e-02 9.1741968488786370e+00 -3.3010029634785383e+00 1.2316483214830669e+01 3.4391380240005674e+01 5.7506499561166891e-01 -2.3079200358920011e+00 -4.1680446828612524e+01 -2.5956375930590561e+01 8.0193421568163070e-01 3.1691934357239688e+00 -1.5879627188632867e+01 -5.7931260004611573e-02 -3.6708270396698936e+01 -7.2029882250132871e-01 -1.2246624722396993e+01 -1.2288814325086813e+02 -6.5522925254310948e+01 7.3333423272403717e+00 -1.9016762602523158e+00 -1.1245958397768373e+01 -4.9640357951300203e+01 3.7172727768593177e+00 3.1764231232758897e+00 7.4722784498692025e+00 1.3837423408452256e+00 -5.6381982220343374e+01 -9.6387362474884917e+00 -2.7833340679555569e+01 -2.2760866216738325e+01 3.0822911790625135e+01 3.0667816097795150e+01 1.1434668495510190e+00 -9.0363002823284830e+00 
      </Row>
      <Row Index="19">
        -3.0391733890514428e+02 3.6233674255388166e+02 -1.1016975701020929e+03 2.6092697649424690e+02 2.5516789951231331e+03 2.9158729887553654e+03 2.8972355538821284e+03 1.7762868810942491e+03 -2.2899675314468004e+02 -6.5325136924366234e+00 -7.5265072350684204e+02 -6.3029252099170401e+02 -1.0515316636931542e+00 9.6657519972417504e+02 8.9709427664196119e+02 1.4659649082433898e+03 6.5154627359434962e+03 1.4429687793031807e+01 6.8948938717294368e+00 2.7299174651000490e+03 6.0276266729895724e+01 9.5015405183822423e+00 -2.8204336168766022e+03 4.9018761876900680e+02 -2.0132975011214148e+03 1.0751024741232395e+03 8.4114132373069879e+00 -1.6186924171916935e+01 5.3518416036463841e+03 -5.3797070312148571e+02 2.3278874074244687e+01 7.3318125909592709e+02 2.6086337505404435e+03 -1.1157180929235469e+03 2.8653923586905003e+03 2.0192842066292229e+00 -3.1578355617728783e+02 -1.2178303100043613e+03 3.2725088697423425e+03 2.6550244862680006e+02 -2.8828671945881797e+02 2.2586430582894027e+03 6.6027688916236430e+03 -1.0220713055897504e+03 -2.2965687206621817e+02 1.1281367408726288e+02 -2.2337339959082707e+04 -5.5526174267633260e+03 -2.9518866598765999e+02 3.2552374247046573e+03 3.0011266929518861e+03 2.5588994999265092e+03 1.2043719454356512e+03 2.3443747456200072e+01 8.9014210008746486e+03 
      </Row>
      <Row Index="20">
        -1.0896349399169219e+02 -5.3035077849810541e+03 -1.3662187807376658e+04 4.5082104757495131e+01 1.0361213670568541e+03 -1.3943174445689765e+03 -3.7076656825755736e+03 1.6801950243976898e+02 8.7536759982627609e+02 6.1526259303479947e+00 -1.2908306662218929e+03 4.7667708967326716e+03 2.0185264549832279e+01 -3.8488600769154727e+03 -1.2814797802667599e+03 1.0244944188693771e+03 -9.3141699517443776e+03 3.6220872686246338e+01 1.2722715059022448e+01 6.0276258949254434e+01 5.7353403383496770e+03 1.7151907052148538e+01 -2.0674932062029839e+03 1.6088904103692039e+02 2.6137669573855237e+03 8.4596025114208460e+03 -1.1566992849133385e+01 -3.1580473007596304e+00 1.2950828432156691e+03 1.0983821099823003e+03 1.6230307362343211e+01 3.9155353879907284e+02 -8.1948918595548221e+03 7.4703534289688037e+02 -6.0476508649960160e+03 -2.2635746227704200e+02 -1.1061830530637394e+02 -1.9432312626992241e+03 -9.8734271397843004e+03 5.4687131181100696e+01 -5.5101253647531848e+01 4.2429463010872514e+03 -1.8097274263280683e+03 -2.3775933177210391e+02 7.0323196599756977e+02 6.8436085969680036e+01 1.0227078175325209e+03 1.2619355876970269e+04 -3.1301808001016980e+01 1.5069385358277907e+03 -2.3458784635143365e+02 6.9663921098145211e+03 1.4718350080797409e+03 4.2416159777194480e+01 4.0695691945894337e+03 
      </Row>
      <Row Index="21">
        8.0670377927404813e-01 -8.4016307981544657e+01 -5.3449678950806657e+01 9.7741090596295588e-01 -8.3365043404410244e-01 -4.7956458344775079e+00 1.3879018305739208e+02 1.6900903977746566e+01 1.7917687704183027e+00 4.4443573013636106e-02 -8.3202211152148564e+00 2.3038700994079150e+01 -4.2032048196998489e-02 -4.8389759489272137e+00 -8.0355384308045359e+00 -7.7900583611401544e+00 1.4004143865015067e+01 -2.8451099897080445e-02 6.8515295452975522e-02 9.5015405088040534e+00 1.7151907033962175e+01 4.1686412806841999e-01 1.3835788784257602e+01 -9.7845219423459753e+00 3.1067186760365189e+01 -4.7953276255488163e+01 -7.8319177982812960e-02 5.3465216824412043e-01 3.7886758831761284e+01 -2.6880028481313158e+00 2.0688985554476763e-02 1.5107720412405001e-01 -2.4310694640334084e+01 1.3032311109446649e+01 2.3750848058833071e+01 -9.5568442915105001e-01 1.1549611880742459e+00 -5.1725107021609631e+00 -2.4533900413660259e+00 8.9157391816473786e-01 -3.0671583293869844e+00 2.4221200335891304e+01 9.3754491430096479e+01 -1.1248106293978708e+01 1.0455382600719136e+00 -8.5232657919652421e-01 1.1518763001686372e+01 5.3819582906594476e+00 1.0087286430663145e-01 1.6551132179402263e+01 1.8174408627812548e+00 -2.4022507345752068e+01 9.8767158983657559e+00 -8.2709825253228786e-02 5.3788878932221547e+00 
      </Row>
      <Row Index="22">
        2.1465729448038684e+02 4.0621981361652897e+03 6.4435961008932773e+03 -1.4884626866201086e+02 4.9259741356335580e+03 9.2097245940934408e+03 5.9792560356874001e+03 -2.6909943841751665e+03 -5.9541615620972152e+01 4.8706403211331235e+00 -2.3819584686486633e+02 -1.1438174717334914e+03 -5.1937118709625540e-01 2.2812302599602845e+03 2.2181206906873267e+03 -1.2984328662207117e+03 -1.8303491273596883e+03 -4.7958481174777717e+01 9.1741967124253279e+00 -2.8204336170634760e+03 -2.0674932147302025e+03 1.3835788775100532e+01 9.9743257356631756e+05 -4.7308668001357000e+02 -5.7546050860441756e+02 -2.8784329424798489e+03 -2.6500317680722219e+01 1.6359837718789425e+01 -1.3004238816191919e+03 6.5933858650508751e+02 -1.7631331289051296e+01 1.5145502979227222e+03 1.8847781658430176e+02 -2.1099087235179604e+02 3.7057064304649830e+03 4.4555396305075050e+01 2.2710316711862447e+02 4.4550262506925519e+03 3.4603810047319680e+03 -1.5380162691411331e+02 4.0484841381985461e+01 3.6930265295862664e+03 5.3789453206239950e+03 2.4451618314255029e+03 -3.1828590759308497e+01 -9.7179453202920939e+01 5.9011577584425168e+03 -1.6524441004650375e+03 1.8735009610219822e+02 -6.2257227148006059e+03 -5.7717763105729064e+03 1.4543204673404316e+03 3.1393519094948406e+03 -7.9190588441245382e+01 6.4484235321896231e+03 
      </Row>
      <Row Index="23">
        -3.6867603220473222e+02 -1.6984312305891899e+02 -4.4705183799076040e+03 2.2526188455093705e+02 2.5793300277423114e+03 -2.4044984178252498e+03 -1.0118869193955034e+03 -1.6163817722545937e+03 5.4855302363850933e+02 -6.0348885060905104e+00 3.8790870377108458e+03 5.9722036797876353e+03 -8.2983609895374855e+00 2.1446150352676632e+03 -8.7040114334495738e+03 7.1165112635667901e+02 1.3740702652554959e+04 7.3090816945929760e+01 -3.3010030616678705e+00 4.9018759711543316e+02 1.6088904068533157e+02 -9.7845219429350294e+00 -4.7308667075634003e+02 2.8720616678247636e+04 -4.3127870549834333e+03 1.0211580880865455e+05 7.4463767551955243e+01 -7.3539284860695858e+01 5.0127304569121889e+03 -7.3866122570788957e+03 -1.1219092021039518e+01 6.2104189911050344e+02 5.0422141875359957e+03 2.9718710188495243e+02 -1.8859444752372801e+04 2.7733954223759315e+02 -4.1206711570736934e+02 6.1736474258462276e+03 -2.5301852482102931e+03 2.1052891344467847e+02 -3.8015237585059367e+02 4.1162257362365526e+03 5.1354114644755464e+03 3.8553884763531387e+03 8.6306243101001814e+02 1.2250057325712038e+02 4.3149536783269550e+03 6.2404465927385390e+03 -3.9081695268795829e+02 -1.4859556811322404e+03 -4.2884655215763705e+03 -8.2964022407980792e+02 -3.6097862631729222e+03 1.2146922498043477e+02 4.3173374010423122e+03 
      </Row>
      <Row Index="24">
        5.6948291162062469e+02 -5.3698694615245586e+03 8.0761795443909705e+03 -3.9929057774353794e+02 -5.9519579575657845e+03 1.6393395464597124e+03 -4.4822142138729469e+03 1.5448568497356027e+03 -5.8923845193625311e+02 1.5527309073458127e+01 -2.2742464728983432e+03 -4.1237124729880597e+03 -1.0743859833646564e+01 -3.0224107491322793e+03 1.3409851989351213e+04 -4.0096943503681105e+03 7.5413551822304726e+01 -2.7828022955009146e+01 1.2316483321592386e+01 -2.0132974703197760e+03 2.6137669658937375e+03 3.1067186812299980e+01 -5.7546050703525543e+02 -4.3127870625955984e+03 1.6994598326652078e+04 -4.9435401212573051e+03 -1.0051198020201991e+02 1.4436940370077377e+02 -2.9334389611957596e+02 6.0599465671646713e+03 1.6878175372248069e+01 -2.7659034916635574e+03 1.7578869055863888e+03 5.7517586762213868e+03 -2.3060487447306514e+03 -1.2077452839271308e+02 6.7528413701608019e+02 -3.7972888014963792e+03 -5.2032012063807360e+03 -3.7247285619843223e+02 1.6966109459782019e+03 -1.4286323630847039e+04 -9.6894596855910422e+03 -1.7935722555238754e+03 -7.1642328028652912e+02 -3.8176898510845336e+02 1.3688695019509423e+03 9.4930504165091115e+03 7.0888629478759867e+02 -3.3494941253403090e+03 2.4378996274667152e+03 2.6257501526305961e+04 3.4443914940362006e+03 -8.8184365966541009e+01 -1.3106346513449858e+04 
      </Row>
      <Row Index="25">
        -3.0815098809940946e+02 6.8665079462830054e+03 1.2461402854222561e+04 6.0100827503559731e+02 2.4815572591647506e+03 3.1064047646970528e+04 -1.7160832039889588e+04 1.7163397650668398e+04 1.1721352659410159e+03 8.1430091039997023e+00 6.5788175562478555e+03 1.4762877631819094e+04 -2.8116504557123619e+01 2.6600676472883206e+03 1.5305455600905698e+04 6.2442665924552130e+03 1.5084912646919489e+04 6.2601260567702229e+02 3.4391380247223424e+01 1.0751025418732388e+03 8.4596024980618095e+03 -4.7953276185372886e+01 -2.8784329494237900e+03 1.0211580881253676e+05 -4.9435402500284836e+03 7.8123714276584983e+05 3.0167323123201641e+02 1.9103665752296365e+01 1.1517616602009319e+04 -1.8758242490725694e+04 -8.6005992970954026e+01 7.8771176385406870e+03 -3.4861709442988067e+04 2.0129065229078278e+04 3.0193904394153506e+04 -9.3445337439811567e+02 -2.5016808065427460e+02 1.3188921284045435e+04 1.9655360008934651e+04 5.2137521273697280e+02 -1.0896411273734411e+04 -1.7377896730175475e+04 1.2245535440201404e+04 -2.7568332485975698e+04 5.9622766837636573e+02 -2.2044906599000979e+02 -7.2346241575592967e+03 2.2717947043641652e+04 -1.0227701627932274e+03 3.6553909521894864e+04 3.2659095784996578e+04 -5.2287774113683845e+03 4.2542202358344228e+04 9.0973719586056086e+02 6.6662429094257050e+03 
      </Row>
      <Row Index="26">
        -7.8151793967049583e+00 -1.4950613766245414e+02 -2.9751673209721071e+02 6.7417895212454306e+00 2.2917984851977963e+01 9.2489089456457648e+01 1.1740646372562168e+01 2.3072625883594810e+01 1.3997959738340262e+01 -2.2212673013189366e-01 3.8088878229632741e+01 5.8710357478820413e+01 1.1325574859035496e-01 3.6412840511983404e+00 9.9744734709578097e+01 -1.3945520219137165e+01 -1.6284124351021092e+02 6.0571116523692101e+00 5.7506499473448258e-01 8.4114131967194155e+00 -1.1566992919662979e+01 -7.8319178062725509e-02 -2.6500317571015330e+01 7.4463767526890450e+01 -1.0051198038261361e+02 3.0167323102593946e+02 7.5970094713871035e+00 -1.5350442804811231e+00 -1.0664545584057878e+02 -2.7199386429531987e+01 5.7764330591275836e-01 3.3084275398900232e+01 1.9850375210673803e+01 3.0578042926148674e+00 -6.9925490819743573e+01 -8.8660347516966791e+00 -8.9944426842099219e+00 -2.2993371708595302e+02 -5.2058347104834411e+01 6.9342396763689074e+00 -2.8976290610203250e+01 -3.2817530635941921e+01 7.6469592673724776e+01 -3.1674703182446592e+01 7.2289242714404391e+00 5.0658572786295242e+00 1.4538918968929812e+02 1.5600811521935512e+01 -9.8716479901649166e+00 4.0649410579438921e+01 2.0461272556819061e+01 -1.0903160012360019e+02 9.6256218737018401e+01 9.3119000257128839e+00 3.0875127848597845e+00 
      </Row>
      <Row Index="27">
        4.2486528997824294e+01 1.4792187631277301e+02 3.0438654265122648e+02 -2.9372239886396564e+01 -6.4878239659536121e+01 7.2654854908693011e+01 3.6740665771727686e+02 8.7179446160096632e+01 -2.8040050918480070e+01 1.6873545862593353e+00 -3.8485326530184317e+01 -6.3434505035798225e+01 -1.0364386735257025e+00 -4.7064764899494094e+01 3.6648772435331534e+02 -7.6021446330510116e+00 1.7602301135207381e+02 -5.1687181623703093e-01 -2.3079200350488236e+00 -1.6186923587556908e+01 -3.1580476777817239e+00 5.3465216765682277e-01 1.6359837139607407e+01 -7.3539285243106576e+01 1.4436940382326782e+02 1.9103665607253788e+01 -1.5350442851243571e+00 1.2531918777339447e+01 6.8291613581560142e+01 1.6489069521069348e+02 -1.1900033234519409e+00 -4.6297188962829864e+01 1.0210581108508234e+02 1.2821952084556796e+02 -1.4369091018765175e+01 -3.1570775901517170e+00 5.1846692573332952e+01 2.5921649703207277e+02 8.8524143763832896e+01 -2.9022155827633600e+01 3.2773877125690888e+01 -2.7989523415380825e+02 2.3572180331380429e+02 -6.7838153856098870e+01 -3.0554753834157424e+01 -3.3173651455289068e+01 4.5337138076453243e-01 1.0605820820054669e+02 4.3476199812884907e+01 6.6845176140429331e+01 2.0265217228726607e+02 -1.0330081160249667e+02 4.2168348474035717e+01 -2.3077855519721640e+00 -7.1742858599072248e+00 
      </Row>
      <Row Index="28">
        -4.1707678672134995e+02 -1.2150396919612194e+02 1.5955143014489884e+04 4.2132830605922345e+02 4.2783205882683396e+03 1.1045971016390018e+04 7.3304753989966848e+03 6.4065852410830557e+03 -3.1587642571971446e+02 5.5240953311904377e+00 -2.2516511604100015e+03 -3.1788256763482350e+03 -1.7752110992475195e+01 -8.7334613304957747e+02 1.0697656856967136e+04 2.8671109732100740e+03 2.2060373432129622e+04 -6.3311986342088858e+01 -4.1680446702201152e+01 5.3518416107294033e+03 1.2950828576257918e+03 3.7886758865474349e+01 -1.3004238820075989e+03 5.0127304975775769e+03 -2.9334396441327408e+02 1.1517616488397121e+04 -1.0664545569787151e+02 6.8291612413058900e+01 2.5048973017615441e+04 1.0007615258611431e+03 6.1994637327317719e+00 5.4485452230837836e+02 1.3895663857860716e+04 -2.4695272709148803e+03 1.4446444580338895e+04 1.8942728768701355e+02 -3.6015937354391190e+02 1.6261653312969556e+04 1.0834462823313015e+04 3.9285603212549842e+02 -1.6653699130015448e+03 -1.1295185582141276e+03 1.0639416024558690e+04 -5.1120048806853592e+03 -1.5722453539188587e+02 -6.9004566833185208e+01 -4.4310063915446866e+04 -2.6350719300099900e+03 -2.7339002193159104e+02 1.1308836574200583e+04 1.1343998157450213e+04 7.0260837999851428e+03 4.7939951969338745e+03 -1.2584713844980433e+02 1.6510054999262386e+04 
      </Row>
      <Row Index="29">
        8.5232518313696062e+02 1.0146803397182040e+04 1.6249917668945185e+04 -6.8282545536835664e+02 -3.0121839189918246e+03 2.1152207353108115e+03 -1.5710302678212347e+03 -1.9375614633690566e+03 -1.7925397157392620e+03 2.1620630951375517e+01 -3.8938593325946285e+03 -7.7365794996115146e+03 -2.0322391438915925e+01 -3.0414405039993289e+03 1.5777701207276899e+04 -2.2097390193659521e+02 -1.0082685144001618e+04 4.0104248718703730e+01 -2.5956375866257076e+01 -5.3797069430838610e+02 1.0983821079913469e+03 -2.6880028484696155e+00 6.5933857819437981e+02 -7.3866122568786814e+03 6.0599465675881220e+03 -1.8758242505058646e+04 -2.7199386469364981e+01 1.6489069490682078e+02 1.0007615429339767e+03 1.5245550709763316e+04 5.2895095265589234e+00 -2.6298004669301763e+03 4.1209636605267224e+02 1.3022823558488953e+03 -1.1256940165204462e+04 -3.3204750933746720e+02 9.7027681730795689e+02 1.0573193139258714e+04 5.0896957381875372e+03 -6.4566507811010933e+02 2.4971054557532188e+03 -1.0294726683277302e+04 -5.8546289494646344e+03 1.0722529190266505e+02 -2.1164051947062467e+03 -5.3144329151356908e+02 -8.0978628039922642e+03 7.2591377453681262e+03 9.9941211563068941e+02 8.1559532080858662e+02 7.1530286430438464e+03 5.5108840830562922e+03 -1.3883679729124435e+03 1.6861655087081203e+01 9.5713287349669565e+02 
      </Row>
      <Row Index="30">
        -1.2347934069027279e+01 -1.0143159533726489e+02 -3.0339775597893288e+02 4.1018479278821545e+00 3.0766404894084303e+01 5.3202202167159413e+01 -1.9426888890139571e+02 4.4115519171081019e+01 7.0994180643425242e-01 -3.5444626108299770e-01 -1.8303732769917467e+01 -3.5214407653858508e+01 3.5144059038539310e-01 1.9826414318561092e+00 1.6065843311108887e+02 -3.3159394477051762e-01 2.5155819003069701e+02 1.0270890971146893e+00 8.0193421589129166e-01 2.3278874266241502e+01 1.6230307442709872e+01 2.0688985567441670e-02 -1.7631331218050036e+01 -1.1219091913082814e+01 1.6878175123954250e+01 -8.6005993007478537e+01 5.7764330563346977e-01 -1.1900033260375209e+00 6.1994640640417344e+00 5.2895095204532652e+00 2.0338417769057213e+00 1.1534019212430394e+01 1.4523002662901726e+02 4.3308220281279830e-01 9.2130443180789143e+01 -2.1855804537713324e+00 -1.3051675658449755e+01 -6.5806376244260917e+01 -1.5018822097310206e+02 5.4808410973918900e+00 2.0470868186151563e+00 -1.6566831864268624e+02 -1.7801436157546971e+02 -1.4188859599530815e+01 -1.4607712049916586e+00 6.0512836856988308e+00 -4.8828690545289646e+01 -1.6335797258042464e+02 -5.1316277091267484e+00 -8.1998436687694749e+01 6.8580037938803571e+00 7.4056354991475416e+01 1.1391282493394453e+02 1.6723498459983590e+00 -5.8654441681877501e-01 
      </Row>
      <Row Index="31">
        -4.9014016796688878e+02 1.0466061770263626e+04 3.9699265416545531e+03 2.1476583230949177e+02 -3.1492133873924613e+03 1.0910826120079553e+04 -1.5704849667394585e+04 -3.4712047336529940e+03 -3.0823340991967416e+02 -8.3023094343025150e+00 -1.2066253312807748e+02 2.1918901688584883e+03 5.7024576467570114e+00 1.5476323890555650e+03 -4.8406142104705796e+03 2.0716916653125081e+03 -2.9746416780725121e+03 1.8110451756281691e+01 3.1691931845489307e+00 7.3318124946477474e+02 3.9155353623890551e+02 1.5107720374197697e-01 1.5145503151416779e+03 6.2104189279698767e+02 -2.7659034926462919e+03 7.8771176722347736e+03 3.3084275298693683e+01 -4.6297188003581496e+01 5.4485450705289782e+02 -2.6298004582653552e+03 1.1534019032471370e+01 9.9108483963788243e+05 -4.0748850320119727e+03 -1.1057366019655171e+03 2.2343878520578146e+03 -1.4058111609722403e+01 -5.2558248419627989e+02 1.7841424925111132e+04 9.0361098109870327e+03 2.0890437452432073e+02 1.1705758954324061e+04 1.1668112768270832e+04 -3.2778655153440777e+03 3.9923303704056889e+03 -3.0677500463547312e+02 1.9339164084105659e+02 7.4644282448180056e+03 -1.2850342640683284e+03 -4.1884508127842855e+02 -1.9930523997252763e+04 -1.1194227050360061e+04 1.5259618989587769e+04 4.5304606898076609e+03 3.4676969702633869e+01 1.1151125744363133e+04 
      </Row>
      <Row Index="32">
        -1.2308491620703146e+03 1.4653956356275383e+04 3.0909852647067266e+04 1.5497273798000467e+02 -2.9591182442940772e+03 4.2822103654576800e+04 -4.3206523246033939e+03 -3.4146828710613772e+03 8.9787750339631202e+01 -1.8005536252694355e+01 4.3823821846740975e+02 -1.7473730996941391e+04 -9.3810057185001199e+00 -4.4081717955099884e+02 6.9559039508659858e+04 -2.3738133151759394e+03 2.1063395157236233e+05 1.1319009661007840e+01 -1.5879626948950317e+01 2.6086337298658909e+03 -8.1948918414815271e+03 -2.4310694671084832e+01 1.8847783201932907e+02 5.0422142098408367e+03 1.7578869383112760e+03 -3.4861709504798055e+04 1.9850375230169448e+01 1.0210580980745868e+02 1.3895663815687329e+04 4.1209634405112502e+02 1.4523002671373970e+02 -4.0748849644313523e+03 9.9659182325351285e+04 -4.4142552469370639e+03 3.9509506852734834e+04 3.8378813422637938e+02 -1.1249615412142116e+03 3.2044036240920141e+04 -8.5188485415333344e+03 2.6511657451810561e+02 4.6850249414112186e+03 -3.7998548279002367e+04 -1.2306857881687498e+04 3.5510642670122907e+03 3.6360934467352513e+02 -1.2175634694007402e+02 -1.0617990244155433e+04 -3.7999492485146607e+03 2.1667903414647299e+01 -1.2810338557288862e+04 1.4518791565783908e+04 2.0400368982735681e+03 -1.0842015491760987e+04 -7.3040623996078466e+01 -5.3716567265129579e+03 
      </Row>
      <Row Index="33">
        6.7233417307573518e+02 -2.7730414008273524e+03 -5.7597899729569172e+03 -4.8119450842547724e+02 -6.6953838621545583e+02 -6.3218604588070593e+02 1.4279870168153539e+03 -3.4408855077615008e+03 2.9437013924823441e+02 1.8410469559405215e+01 6.9936569471385610e+01 1.2521081881324208e+03 -5.2242369646162103e+00 4.4460957817011513e+02 -1.3700914702885784e+03 -1.5910103005727869e+03 -7.4737940122839063e+03 3.4831945031798341e+01 -5.7931254579671076e-02 -1.1157180885278067e+03 7.4703534041307284e+02 1.3032311104265872e+01 -2.1099087926745415e+02 2.9718709437326470e+02 5.7517586908852099e+03 2.0129065254621208e+04 3.0578042464294413e+00 1.2821952091803342e+02 -2.4695272577138203e+03 1.3022823597479883e+03 4.3308225840379677e-01 -1.1057366141226794e+03 -4.4142552422677800e+03 9.2308368530729131e+03 -1.0694576410492882e+04 -1.5553025789237495e+02 7.6863371108034494e+02 -6.4215960176111894e+03 -6.6204359110910809e+02 -4.5994362801833881e+02 6.3787478876556270e+02 1.0648612391493225e+03 3.3259171618774199e+03 2.4603839254467748e+03 1.6046670052692320e+02 -3.7116916880801324e+02 1.8562809496816162e+03 1.0124847158732064e+02 6.8602790504323320e+02 -2.8057494838674043e+03 -2.5075819678021212e+03 2.6609284695547049e+03 -3.4336275139995560e+03 4.7347375308692790e+01 -2.6091387725488203e+03 
      </Row>
      <Row Index="34">
        -9.9593754415488490e+02 1.0643312672200613e+04 -2.9820307585688599e+04 4.4972614852234983e+01 -1.2129135232603177e+04 -2.7362752876630562e+04 1.1924917046042254e+04 8.1623848431885242e+04 8.0301816269531628e+01 6.5475717285989958e+00 1.0745600882656618e+03 -5.3553425542310579e+03 1.2208162455207741e+01 -8.9674838971877471e+03 2.5669473847395275e+04 -1.9004597772479756e+03 3.2736096530109644e+04 -1.6959792036544604e+02 -3.6708270519200596e+01 2.8653927628327401e+03 -6.0476509295399883e+03 2.3750848214505538e+01 3.7057063405513763e+03 -1.8859444800108031e+04 -2.3060491848406382e+03 3.0193904595762491e+04 -6.9925491159257945e+01 -1.4369089629130535e+01 1.4446445317525129e+04 -1.1256940050741652e+04 9.2130443818797303e+01 2.2343876086594482e+03 3.9509507061227428e+04 -1.0694576503879680e+04 8.6158315248975530e+05 6.0197757981464792e+02 -1.0054230419223409e+03 3.0342637679682783e+04 -2.1439772113618164e+04 1.0205474692660843e+02 -9.7660280890043359e+03 -3.9862216645321721e+04 5.4133763234124490e+03 -8.6794178736334667e+04 5.6994567974759320e+02 1.3728452607035314e+02 -3.1397097443655748e+03 -3.6821357780335820e+04 -3.1133957011054008e+01 7.1591315039501671e+04 7.0208291713974453e+04 6.4725067348881712e+03 1.8879555387305404e+05 -2.6574856984043163e+02 7.4355109219467249e+03 
      </Row>
      <Row Index="35">
        -1.4007393779134290e+01 2.9242568186127545e+02 1.0399536302824222e+03 1.1276146918801871e+01 2.1793563301544054e+01 -3.8048814652495901e+02 1.5083683411652646e+02 -1.0062660512332513e+02 -5.9018701325488692e+01 -1.2210808888724856e-01 1.1508575545047592e+02 -1.9824904831499293e+02 -1.1432568101915357e+00 1.1955592348096798e+02 -6.9912875054928554e+02 2.5225972590114907e+01 4.5085474459902616e+02 -1.3381322356170408e+01 -7.2029882414352642e-01 2.0192828710269737e+00 -2.2635746208190517e+02 -9.5568442916996998e-01 4.4555396776646376e+01 2.7733954236198269e+02 -1.2077452737070234e+02 -9.3445337465149350e+02 -8.8660347489517335e+00 -3.1570775858037559e+00 1.8942728519503450e+02 -3.3204750967004640e+02 -2.1855804575852815e+00 -1.4058110884913518e+01 3.8378813281129214e+02 -1.5553025755621468e+02 6.0197758221061667e+02 6.1135034356328646e+01 -1.6397777976055902e+01 4.9979192337537893e+02 -3.1729955273911139e+02 9.0905963057617907e+00 4.1217776482299087e+01 3.9069208595995428e+02 1.8481894610907108e+02 1.6410928238007182e+02 -6.3149374425082980e+00 8.0666264638651981e+00 1.1750241633458064e+02 2.2182672825691080e+02 -1.9944756289566385e+01 -1.5577226453486944e+02 -2.2299336800737223e+02 1.3950671808226218e+01 -4.4011110432599520e+02 -1.7898652482480848e+01 7.2390845114111372e+01 
      </Row>
      <Row Index="36">
        3.5012958836836282e+02 3.2578427995168013e+03 1.5636941460210141e+03 -1.7028525521057713e+02 -6.7935165869479533e+02 -3.6696463044764641e+01 1.6588911282063436e+03 -1.3111148693441646e+02 -8.5342774167602954e+01 7.9248012902538676e+00 -6.2805445039899894e+01 -1.6790608595511003e+00 -5.7613480464070728e+00 8.6754616894286301e+00 -3.5345617919554934e+02 -1.5922635447057473e+02 -1.4412486234500539e+03 -9.1933926931932035e+00 -1.2246624723370928e+01 -3.1578355432049807e+02 -1.1061830721598835e+02 1.1549611854264139e+00 2.2710316364467144e+02 -4.1206711848787018e+02 6.7528414025960228e+02 -2.5016807810217142e+02 -8.9944427079665275e+00 5.1846692604021641e+01 -3.6015936902433464e+02 9.7027681920202872e+02 -1.3051675649553625e+01 -5.2558249066831320e+02 -1.1249615360151815e+03 7.6863371125688639e+02 -1.0054230359490030e+03 -1.6397778048865774e+01 3.8735357788084997e+02 2.5719690609208596e+03 6.3147426903559108e+02 -1.7228807147086752e+02 4.1479371402423203e+02 1.0766891434810091e+03 1.1576311870149557e+03 3.3169599413347896e+01 -9.9527792598910025e+01 -1.6524996932309705e+02 2.0276018165149085e+02 1.0189488471813235e+03 2.4508655588210763e+02 3.7290949240455342e+02 1.3396706504168321e+02 -4.1905651459067906e+02 -9.3726301570336909e+02 -1.7442588840521495e+01 -1.6902157809016674e+02 
      </Row>
      <Row Index="37">
        2.3645273860440570e+03 1.5789938177761462e+05 4.7581657005863846e+04 -9.7040893792777297e+02 7.9323065871596336e+03 -4.1000187336311210e+03 6.3240894592187600e+04 -2.9664393910765648e+02 -1.0715520131425365e+03 4.4735505083459429e+01 -1.0889241884720395e+03 -1.4734537975478102e+04 -5.2056546268299144e+01 -1.4445199211889878e+04 2.4658004545168951e+04 6.5027775964578614e+03 3.9273609815061092e+04 -1.5356398981152597e+02 -1.2288814389234176e+02 -1.2178303031915566e+03 -1.9432313424877357e+03 -5.1725108534051287e+00 4.4550262317657471e+03 6.1736472460101359e+03 -3.7972885815622285e+03 1.3188921666145325e+04 -2.2993371785955969e+02 2.5921650238965367e+02 1.6261653368900210e+04 1.0573193241748959e+04 -6.5806375052458407e+01 1.7841424809911856e+04 3.2044036140455632e+04 -6.4215959683181973e+03 3.0342640330135822e+04 4.9979191361237827e+02 2.5719690824039635e+03 2.8290534159219131e+05 -1.9597674654113478e+04 -9.7341176115691815e+02 -2.2825587518524379e+04 -4.4462239950262127e+04 2.9066769906709727e+04 -4.6311954046040773e+02 -7.1615759753873135e+02 -9.0391901816622840e+02 1.8908678686448612e+05 4.0296459482010876e+04 7.6176514740986750e+02 4.3271249843463011e+01 -7.1507934979225938e+03 -7.7618718709673907e+04 5.9879206574844848e+03 -2.8086845179997181e+02 -5.7102237582127891e+04 
      </Row>
      <Row Index="38">
        5.8296126035972065e+02 2.2054672850697280e+04 1.5239324799803973e+05 -2.9483344105879769e+02 -1.2876884027242661e+04 -3.5943272845976520e+04 7.6463825975168147e+03 -2.4056779121160507e+03 4.2104903069990687e+03 2.5703520530936657e+01 -2.2467423550063395e+03 -1.4635461932675680e+04 -3.3803654490021472e+01 -8.1501697840988636e+03 3.4553623599596322e+03 2.8060378155875951e+03 -2.1851766184449196e+04 3.1017605811794056e+01 -6.5522922896547243e+01 3.2725092480749590e+03 -9.8734270697520114e+03 -2.4533902571865838e+00 3.4603807487487793e+03 -2.5301852170126513e+03 -5.2032011597007513e+03 1.9655360087394714e+04 -5.2058348190272227e+01 8.8524133115526183e+01 1.0834463568795065e+04 5.0896957027664175e+03 -1.5018821889443421e+02 9.0361096823375265e+03 -8.5188480858060066e+03 -6.6204373309677612e+02 -2.1439773340880871e+04 -3.1729954814820780e+02 6.3147420730162958e+02 -1.9597677840563978e+04 4.7009821593363909e+05 -4.0359370804255559e+02 -1.9185134127289057e+04 -5.3744485361092899e+04 -3.1641857416279847e+04 5.4429836030304432e+03 3.9471420706190693e+03 -4.8001401364912817e+02 -1.1033274434274390e+05 -3.7388334294656309e+05 1.8312954455430736e+02 -2.0156659951749170e+04 -2.7624733528423247e+04 -1.0233674571715653e+05 -2.2877814866070889e+03 7.9086417938393424e+01 -1.1555922324011625e+05 
      </Row>
      <Row Index="39">
        -1.5071350170277535e+02 -1.5340938696990170e+03 -9.4073815755033911e+02 1.3669914404343143e+02 2.1870488706443575e+02 5.9245511292556807e+02 -6.4770785565581855e+02 3.0314852063206490e+02 6.6326975360273281e+01 -4.5426531305109279e+00 9.6628293778331908e+00 7.6744906681019529e+00 2.4787741202590383e+00 6.1954222210020816e+01 1.6487255406187251e+02 9.5652509322058904e+01 1.1708371899556369e+01 6.9921207714438793e+00 7.3333423292191355e+00 2.6550244781336039e+02 5.4687132485169514e+01 8.9157392072026198e-01 -1.5380162471346557e+02 2.1052891553598238e+02 -3.7247285949995239e+02 5.2137521038390696e+02 6.9342396955460117e+00 -2.9022155854856450e+01 3.9285602970463856e+02 -6.4566507947321975e+02 5.4808410904393661e+00 2.0890437862383953e+02 2.6511657164931239e+02 -4.5994362833510451e+02 1.0205473760305904e+02 9.0905963658943776e+00 -1.7228807152146300e+02 -9.7341174994680250e+02 -4.0359375371657484e+02 1.3502704095877013e+02 -1.6330606312862074e+02 -9.3685680272132004e+01 -4.4960872859251720e+02 -2.1961700932885287e+02 7.4829657521054216e+01 9.6569631942580600e+01 -4.8821720316866623e+02 -6.5073529605161877e+02 -1.6458215521220930e+02 1.4177827050779268e+02 2.8707544814221365e+01 1.2406496388697013e+02 6.1843476725971959e+02 1.2650560034517596e+01 1.2841083477418454e+02 
      </Row>
      <Row Index="40">
        3.8926206582038617e+02 -5.7654594648676430e+03 -8.2906517631522656e+03 -1.7854562704828186e+02 -4.7114097002595663e+03 -4.0332189900972298e+04 1.6046357339585695e+04 1.1808109333887696e+04 3.0967994851292315e+02 4.3161397094518179e+00 -1.8488084760261700e+01 -1.8106284195113694e+03 -4.0431456314551042e+00 -8.0292442701859400e+03 2.8408671238059178e+03 -1.6310987195032649e+03 9.1088225185573101e+03 -1.4804505805110239e+01 -1.9016755588236265e+00 -2.8828670447849436e+02 -5.5101233686320484e+01 -3.0671583172925239e+00 4.0484808444976807e+01 -3.8015234805596992e+02 1.6966109561077319e+03 -1.0896411359548569e+04 -2.8976290260558017e+01 3.2773874319330503e+01 -1.6653698915445857e+03 2.4971054256645730e+03 2.0470872495366166e+00 1.1705758985295222e+04 4.6850250946696615e+03 6.3787475517309940e+02 -9.7660287317037582e+03 4.1217778766687843e+01 4.1479369618522060e+02 -2.2825587750596049e+04 -1.9185134823759901e+04 -1.6330605183509283e+02 9.8004395493134111e+05 -2.7504457308651996e+04 -2.9895209119577194e+03 -1.2366641624182463e+04 3.3274060136177570e+02 -1.2601076454056579e+02 -2.4628989182586392e+04 8.6101346504243193e+03 3.3779127903222980e+02 4.8781094342771212e+04 3.2913240532992248e+04 -3.2244842166049275e+04 -1.5201920438727057e+04 -2.8972158759446756e+01 -3.0991832483270755e+04 
      </Row>
      <Row Index="41">
        1.3208515479590151e+03 3.4290235281261066e+03 -6.2431129293455917e+04 3.8498934499159077e+01 -1.7297997660487890e+04 3.0889989603461523e+05 1.2539471768134739e+04 -1.0617508970096707e+04 -3.7394180040937499e+02 -1.7112542087124893e-01 4.3078889923233946e+03 2.3108809176407987e+04 2.2083879554477789e+01 -1.9551182852417231e+04 -9.5369212551161647e+04 4.4831561447661370e+03 1.0465719629526138e+04 -1.8921095890346623e+02 -1.1245955698657781e+01 2.2586430035358062e+03 4.2429463768340647e+03 2.4221200143368151e+01 3.6930265169143677e+03 4.1162258854899555e+03 -1.4286323494229466e+04 -1.7377897385597229e+04 -3.2817530067637563e+01 -2.7989524617989264e+02 -1.1295187130183913e+03 -1.0294726845018333e+04 -1.6566831704531344e+02 1.1668113141436959e+04 -3.7998547802155372e+04 1.0648611458511732e+03 -3.9862219499707222e+04 3.9069209825874714e+02 1.0766890788375094e+03 -4.4462240066415892e+04 -5.3744487970685819e+04 -9.3685642218804958e+01 -2.7504457981541753e+04 5.3844641900705080e+05 -9.2114773991259281e+03 1.0143732221737504e+04 -3.6958093184966856e+00 4.6532101808452626e+02 -7.7798883081756285e+04 4.0028244562748405e+04 -4.4545188153185882e+02 4.0131433111683931e+04 1.9179471761202096e+05 -9.7229879513029067e+04 -7.5795598158942972e+04 -1.3195075323747005e+02 -9.5825126689374025e+04 
      </Row>
      <Row Index="42">
        1.0003053688899300e+03 5.2400197028031253e+04 -2.0214413166563318e+04 -3.3292542079495331e+02 -1.4255259436249733e+04 -4.5158277275413391e+04 3.1616776679847442e+05 -4.7873584881722927e+03 1.0957566095667426e+03 3.5618556578476273e+01 1.0914975015024102e+03 1.1674891838681884e+04 -5.4286356586620741e+01 -1.2019899957209826e+04 -2.9624143215244636e+04 1.8079065015828237e+03 6.1324695819616318e+02 -3.9861713951191632e+01 -4.9640357132186182e+01 6.6027690273039916e+03 -1.8097273024450988e+03 9.3754491853536365e+01 5.3789453468322754e+03 5.1354115051929839e+03 -9.6894597091628239e+03 1.2245536150217056e+04 7.6469594294088893e+01 2.3572180050772613e+02 1.0639416345684062e+04 -5.8546290009947261e+03 -1.7801436091583440e+02 -3.2778654452560586e+03 -1.2306858118947130e+04 3.3259170628557222e+03 5.4133780917823315e+03 1.8481894371365706e+02 1.1576311618171794e+03 2.9066768904248893e+04 -3.1641859857062344e+04 -4.4960870551936932e+02 -2.9895211185719818e+03 -9.2114787021018565e+03 4.1702449279148655e+05 7.3594331875592470e+03 1.3100730271272460e+03 -7.7881566513761618e+02 -7.8827677619433729e+04 2.9694290526733945e+04 7.9078361967243836e+01 -1.8573024795823938e+04 -2.3859201077817110e+04 1.9669287718438540e+05 -1.6400802121371966e+04 -4.0632695918742684e+01 -6.4012581349691187e+04 
      </Row>
      <Row Index="43">
        8.8188349730296665e+01 6.4348310970779471e+02 -1.2356699032143191e+04 -2.1943252140363472e+02 -1.2587532932359725e+04 -6.9724704273891810e+04 -2.2868402663272282e+03 9.6353751076143235e+04 4.2381334752466501e+02 -7.4146011221328081e+00 1.6766439524990092e+03 3.7297959845701989e+03 3.3875173188061467e+00 -9.8451698282645084e+03 -2.7066731411252171e+04 7.8725557773443870e+02 6.9442009521037340e+04 -7.2429023246309953e+01 3.7172723790718010e+00 -1.0220708860607047e+03 -2.3775941433350090e+02 -1.1248106091359773e+01 2.4451617410182953e+03 3.8553884059591219e+03 -1.7935727354879491e+03 -2.7568332204878330e+04 -3.1674703445751220e+01 -6.7838150967552849e+01 -5.1120041114952910e+03 1.0722542809609149e+02 -1.4188859053095157e+01 3.9923300727493533e+03 3.5510644541226211e+03 2.4603838356631641e+03 -8.6794178406298161e+04 1.6410927836500741e+02 3.3169599439629110e+01 -4.6312222368761286e+02 5.4429852227097435e+03 -2.1961700335502715e+02 -1.2366640874784207e+04 1.0143735381647479e+04 7.3594310751023440e+03 8.9879056413472444e+05 5.5885112620319865e+02 9.6573166187523498e+01 1.5281542728860688e+04 -1.0029862040941296e+04 2.0061877461249242e+02 8.9018985687291351e+04 6.4237510859595553e+04 9.0137582724291424e+03 2.0164889038415634e+05 -6.8242259564269261e+01 1.3595997053419860e+04 
      </Row>
      <Row Index="44">
        -7.7143492524881680e+01 -6.6775887267470591e+02 2.2712733995086846e+03 8.0244840495219790e+01 1.3767639123694971e+02 -2.9694637953328665e+03 1.0208754855975576e+02 -2.0860573432967067e+02 1.6001286180717946e+03 -4.3506092449328548e-01 6.0713476123854286e+02 2.2056726958895106e+03 9.9032207225035336e+00 -3.6938654855827917e+02 -2.0110729004828754e+03 1.7566119558512582e+01 2.5566332118590362e+03 3.0654031800707457e+00 3.1764231012316486e+00 -2.2965687705709615e+02 7.0323196622976138e+02 1.0455382595201748e+00 -3.1828587032854557e+01 8.6306242999699680e+02 -7.1642327639106952e+02 5.9622767641954124e+02 7.2289242854349141e+00 -3.0554753708542862e+01 -1.5722454399519575e+02 -2.1164051943859868e+03 -1.4607712012435066e+00 -3.0677500015498413e+02 3.6360933683436451e+02 1.6046670201858410e+02 5.6994573827320710e+02 -6.3149375769018548e+00 -9.9527791972585788e+01 -7.1615755332185995e+02 3.9471420648166968e+03 7.4829657055682972e+01 3.3274058609295753e+02 -3.6958740564805339e+00 1.3100730192832634e+03 5.5885119330952875e+02 1.5947040122485007e+03 8.5182316528326027e+01 2.1621742187130985e+03 2.7119355582015287e+03 -1.0949539990585890e+02 -9.2921308027485384e+02 -3.4176168857252429e+02 1.6070855616221473e+02 -8.7562741684170203e+02 1.3805777082491716e+01 5.9235119382421624e+02 
      </Row>
      <Row Index="45">
        -1.4074490859786928e+02 -7.9526244694407376e+02 -1.3221023068489787e+03 9.6315200662268168e+01 2.4666976250025618e+02 -1.3362443751111641e+01 -1.1401158598552427e+03 -1.0358835877139791e+02 7.8513779211692068e+01 -4.8603007752461238e+00 6.0160177222203103e+01 1.4162716473138244e+02 3.3447009958637479e+00 1.2634618484688235e+02 -6.4621779823678662e+02 4.9141246353892711e+01 -2.7887532472697785e+02 3.3200240087743609e+00 7.4722784483642499e+00 1.1281367284590331e+02 6.8436087144419389e+01 -8.5232657741093476e-01 -9.7179451399017125e+01 1.2250057463090161e+02 -3.8176898631145104e+02 -2.2044906619656831e+02 5.0658572921406630e+00 -3.3173651462636684e+01 -6.9004569524690538e+01 -5.3144329243549407e+02 6.0512836783000461e+00 1.9339164391596438e+02 -1.2175635038209055e+02 -3.7116916875909578e+02 1.3728452635157737e+02 8.0666264896148050e+00 -1.6524996926925789e+02 -9.0391900538820573e+02 -4.8001404845713000e+02 9.6569631885763883e+01 -1.2601077330875887e+02 4.6532098281808521e+02 -7.7881567664724253e+02 9.6573170499636035e+01 8.5182316893313626e+01 1.0009857121410923e+02 -1.5056963719927995e+02 -5.7149978208883442e+02 -1.3712176224860838e+02 -2.0193734118381303e+02 -4.6028221318426313e+02 3.1537744665815899e+02 1.6036230818775499e+02 9.0937426344058991e+00 5.0878557813298464e+01 
      </Row>
      <Row Index="46">
        2.0817863473940713e+02 -8.9447029624359944e+04 -2.9502247447132613e+04 -4.6792271308390991e+02 -2.8509821699619293e+04 -6.8179301601207349e+04 1.1549655644302024e+04 -1.3964685115963221e+04 2.0153075104426534e+03 1.8304862586519448e+01 1.0948981748686754e+04 1.2167866906867363e+04 -6.7475542837655667e-01 -1.8878447154641151e+04 -1.6583057525463402e+04 -4.3675427173152566e+03 -1.8898171847581863e+04 6.7329290773544926e+01 1.3837405180092901e+00 -2.2337340066375211e+04 1.0227075940649956e+03 1.1518762622570648e+01 5.9011578159332275e+03 4.3149531261771917e+03 1.3688702605776489e+03 -7.2346226739883423e+03 1.4538918852852657e+02 4.5338854613601143e-01 -4.4310063984895474e+04 -8.0978625804185867e+03 -4.8828685692732336e+01 7.4644281221913989e+03 -1.0617990854877047e+04 1.8562811136926321e+03 -3.1396993821859360e+03 1.1750238165589690e+02 2.0276024729845813e+02 1.8908678811700747e+05 -1.1033273436283926e+05 -4.8821723878985182e+02 -2.4628989165455103e+04 -7.7798885744867846e+04 -7.8827674697401701e+04 1.5281553520828485e+04 2.1621740938002599e+03 -1.5056967668760808e+02 6.7592826232747897e+05 1.0889152864488261e+05 6.2459407791803824e+02 -7.0193441676702234e+04 -8.0948387143173444e+04 -1.8486051635456068e+05 2.4518531612736988e+03 1.1595292449419503e+02 -2.2795391704580287e+05 
      </Row>
      <Row Index="47">
        9.5893635471178197e+02 -9.3470879487133025e+03 7.7010983151288950e+04 -5.4004486318258387e+02 1.1875841407001019e+04 1.6660069220240926e+04 -1.1957121379326098e+04 1.0632971206337214e+04 2.5109835304876033e+03 3.4735339309067058e+01 6.6449362307105912e+02 1.5805833486146294e+04 -3.8490803140234675e+01 1.3673312130846083e+04 1.0144220748141408e+04 -2.5943703657258302e+03 -1.2759027035713196e+04 -1.4643358535540756e+00 -5.6381984603358433e+01 -5.5526179085581680e+03 1.2619355802495964e+04 5.3819586218223776e+00 -1.6524437999725342e+03 6.2404465626170859e+03 9.4930503903143108e+03 2.2717946990966797e+04 1.5600813443306834e+01 1.0605821956259661e+02 -2.6350728712994605e+03 7.2591377558733802e+03 -1.6335797478802272e+02 -1.2850340910493105e+03 -3.7999497474567033e+03 1.0124861778556078e+02 -3.6821356271028519e+04 2.2182672336149699e+02 1.0189489097373025e+03 4.0296463452727214e+04 -3.7388334340395406e+05 -6.5073534324076934e+02 8.6101337848007679e+03 4.0028241658842191e+04 2.9694287597694783e+04 -1.0029860076040030e+04 2.7119355613013990e+03 -5.7149981904277229e+02 1.0889154175484239e+05 5.1906248127314309e+05 5.8503062122719712e+02 6.8674687243684224e+04 6.7618439325205982e+04 1.1909792787655568e+05 -2.3009053982867576e+04 -1.7161430440770346e+02 1.3205958743081993e+05 
      </Row>
      <Row Index="48">
        2.1272345521882858e+02 1.0178898637791349e+03 7.6795960319477933e+02 -1.6828947631665204e+02 -3.6455125374154886e+02 -5.3664277632979929e+02 4.8572351448841027e+02 -2.3819697267934680e+02 -9.0558854848939177e+01 6.3417141402222512e+00 -9.9764909157254692e+01 -1.4610244637690903e+02 -3.5344363908570049e+00 -1.1558681037945644e+02 4.4671049920849327e+02 -1.5945946139669832e+02 6.3391441200533882e+02 -8.4780136796584031e+00 -9.6387362481366381e+00 -2.9518866427865476e+02 -3.1301809687872264e+01 1.0087286110107385e-01 1.8735009340196848e+02 -3.9081695529247190e+02 7.0888629830889840e+02 -1.0227701595574617e+03 -9.8716480145999412e+00 4.3476199840855642e+01 -2.7339001770052505e+02 9.9941211729766974e+02 -5.1316276959142710e+00 -4.1884508615265514e+02 2.1667907088089123e+01 6.8602790523366798e+02 -3.1133943807333708e+01 -1.9944756367069886e+01 2.4508655589049445e+02 7.6176512868120699e+02 1.8312960439797234e+02 -1.6458215516981406e+02 3.3779129254483996e+02 -4.4545183572356109e+02 7.9078389104107146e+01 2.0061878338112729e+02 -1.0949540056560910e+02 -1.3712176229213296e+02 6.2459401613735156e+02 5.8503055750841622e+02 2.3043457994833381e+02 -3.8938908145023015e+02 1.1944111679353381e+02 9.5568951634080008e+00 -5.3607778119831903e+02 -1.6369373032838610e+01 -2.6669585805179310e+02 
      </Row>
      <Row Index="49">
        3.3221532626646240e+02 1.7542416926975406e+04 4.4096402185018676e+04 2.2043982777080964e+02 3.8737853841021657e+04 1.9216982201225637e+05 5.6456084182117484e+03 -8.5196427688300610e+04 -8.1413829291221919e+02 1.4916439950713539e+01 -2.4695364752000314e+03 4.2387085739779286e+02 -1.7636418882403632e+01 3.2955202706450596e+04 1.5865799217909575e+04 2.0179186447104439e+03 -6.0895597210288048e+04 6.0319929872428474e+01 -2.7833341704739723e+01 3.2552379035913909e+03 1.5069385707874317e+03 1.6551133660665073e+01 -6.2257231664657593e+03 -1.4859558373629116e+03 -3.3494947942607105e+03 3.6553911352872849e+04 4.0649415419786237e+01 6.6845185289347683e+01 1.1308837619445112e+04 8.1559553933539428e+02 -8.1998438169733362e+01 -1.9930525229003993e+04 -1.2810338336379267e+04 -2.8057496666971638e+03 7.1591317527502775e+04 -1.5577228146823472e+02 3.7290949490090679e+02 4.3268542753101428e+01 -2.0156662090955884e+04 1.4177828550999476e+02 4.8781097450941801e+04 4.0131444270337466e+04 -1.8573029171094357e+04 8.9018988027915359e+04 -9.2921311331494007e+02 -2.0193735986637739e+02 -7.0193452518769496e+04 6.8674691505270777e+04 -3.8938909941894235e+02 6.5945308905776020e+05 -2.7929308142829372e+05 -6.0293149409805250e+04 1.0904176486629232e+05 4.0104583677995834e+01 -7.2159941925905834e+04 
      </Row>
      <Row Index="50">
        -2.5127104788614645e+01 1.4791342320977179e+04 5.5612748930215137e+04 2.3776031392933874e+01 3.1925272781729698e+04 -9.0896332371968310e+03 1.5211989985892782e+04 -6.0786550961986184e+04 -1.3899863976628694e+02 1.5855331194656173e+01 -4.3029430179890333e+03 -9.9412397937960923e+03 -2.6637991609888104e+01 2.6390460006467998e+04 5.7229599796932191e+04 -7.0340965588204563e+02 -5.2585378887355328e+04 1.0373156277471571e+02 -2.2760861041722819e+01 3.0011268696797488e+03 -2.3458785279421136e+02 1.8174397773491364e+00 -5.7717760677337646e+03 -4.2884652221961878e+03 2.4378995960708708e+03 3.2659093629121780e+04 2.0461269933148287e+01 2.0265214768658143e+02 1.1343998237329419e+04 7.1530283705473412e+03 6.8580088347902972e+00 -1.1194225799208143e+04 1.4518792472955305e+04 -2.5075821462618915e+03 7.0208285339236259e+04 -2.2299333880035556e+02 1.3396694317524725e+02 -7.1507957216050818e+03 -2.7624734638361493e+04 2.8707613195129966e+01 3.2913237810324878e+04 1.9179471305965260e+05 -2.3859199069878377e+04 6.4237503596842289e+04 -3.4176164991153587e+02 -4.6028214050028100e+02 -8.0948390259074789e+04 6.7618438662484899e+04 1.1944103258091491e+02 -2.7929310607015842e+05 6.9505944949893246e+05 -6.9508486876581577e+04 1.1267987050889479e+05 4.1553848327690503e+01 -8.3657730045769873e+04 
      </Row>
      <Row Index="51">
        -3.5029827580885387e+02 8.1761685376557652e+03 4.5440023439067008e+03 7.2796625597159618e+01 -2.0820901857614517e+04 -5.4015466742504854e+04 -8.3197223415350774e+04 -7.9110896206796169e+03 1.8786918214807520e+02 -1.7107667174699600e+01 -3.4411042451885296e+03 -9.1651935734832659e+02 2.1032147480958884e+01 -1.6665537791542709e+04 1.0069014357194304e+04 -5.9713753072582185e+03 -4.0838695151805878e+03 -4.7615563656232553e+01 3.0822914077667519e+01 2.5589000207326608e+03 6.9663925092201680e+03 -2.4022505829925649e+01 1.4543206005096436e+03 -8.2964013966917992e+02 2.6257501358971000e+04 -5.2287746801376343e+03 -1.0903159431135282e+02 -1.0330081787158997e+02 7.0260850030367728e+03 5.5108839482457843e+03 7.4056357684157774e+01 1.5259619203425391e+04 2.0400359003157355e+03 2.6609281302806048e+03 6.4725144323110580e+03 1.3950658430840122e+01 -4.1905658801054597e+02 -7.7618722226339072e+04 -1.0233675331045827e+05 1.2406503594640310e+02 -3.2244842903189361e+04 -9.7229884762035683e+04 1.9669287646285607e+05 9.0137672860324383e+03 1.6070854916089047e+02 3.1537747803641287e+02 -1.8486052790004350e+05 1.1909793665054032e+05 9.5568114275229163e+00 -6.0293131662727319e+04 -6.9508494749712932e+04 6.7526527351978095e+05 1.6267543115337941e+04 -1.1854338719422230e+02 -2.2475243052261227e+05 
      </Row>
      <Row Index="52">
        -9.8827448348492260e+02 -6.0738579369677864e+03 -1.5444554110694098e+04 5.5633972167901049e+02 -1.9206657301906496e+04 -3.6264523895309190e+04 -1.5848885471866924e+04 -1.8977804238876980e+05 -5.1086692929638139e+02 -4.3678749670275465e+00 -2.5382235643923123e+03 -5.4103651400049130e+03 1.6269294367389421e+01 -1.3597807496553287e+04 4.2261912739309715e+04 -8.6164000874292105e+02 -1.3003591278946400e+05 1.8744102811520133e+02 3.0667815976052225e+01 1.2043725071981171e+03 1.4718349177770142e+03 9.8767161540905590e+00 3.1393518092632294e+03 -3.6097863234968390e+03 3.4443908489738824e+03 4.2542202640146017e+04 9.6256218506983714e+01 4.2168350370970785e+01 4.7939962129448504e+03 -1.3883678240743102e+03 1.1391282593711790e+02 4.5304603849692840e+03 -1.0842015219118839e+04 -3.4336276501255079e+03 1.8879555396318808e+05 -4.4011110774192093e+02 -9.3726302537848915e+02 5.9879170155588627e+03 -2.2877798891991843e+03 6.1843478105568454e+02 -1.5201919648038573e+04 -7.5795594447351177e+04 -1.6400804855456721e+04 2.0164889002813119e+05 -8.7562749771195251e+02 1.6036230818875333e+02 2.4518389307277248e+03 -2.3009056060902214e+04 -5.3607780023174473e+02 1.0904176070251719e+05 1.1267987959876233e+05 1.6267531542900688e+04 2.6974877348671906e+05 2.4095646781342930e+02 6.7302074184581143e+03 
      </Row>
      <Row Index="53">
        -1.5728227262042331e+01 -1.9730166909028830e+02 -5.9178963628326005e+02 1.1767267959948370e+01 9.7486922563839471e+00 1.6151932559380481e+02 -1.5604213325674954e+02 4.9432260634188424e+01 2.8078625682806972e+01 -1.1091655398733558e-01 2.1615837287327643e+01 6.0067698227083383e+01 5.2413702277627272e-01 -6.5862641058753979e+01 2.2868598561149156e+02 1.6386127853081234e+01 -4.4737815447448520e+02 1.1349449622001892e+01 1.1434668491635591e+00 2.3443747762320484e+01 4.2416159749103031e+01 -8.2709825283084459e-02 -7.9190588362980634e+01 1.2146922500859409e+02 -8.8184366487486841e+01 9.0973719577211887e+02 9.3119000254528146e+00 -2.3077855498681004e+00 -1.2584713796088921e+02 1.6861655166269770e+01 1.6723498470732130e+00 3.4676969807574224e+01 -7.3040623880308999e+01 4.7347375253161502e+01 -2.6574856993525464e+02 -1.7898652483679033e+01 -1.7442588835688589e+01 -2.8086845328901336e+02 7.9086417986839706e+01 1.2650560031340294e+01 -2.8972159026111513e+01 -1.3195075306170747e+02 -4.0632698474297428e+01 -6.8242259886639658e+01 1.3805777048911965e+01 9.0937426308554503e+00 1.1595291686266523e+02 -1.7161430522984898e+02 -1.6369373031901425e+01 4.0104577898631810e+01 4.1553852101759027e+01 -1.1854339717465471e+02 2.4095646736608859e+02 1.6996052343621198e+01 -3.5108696948789721e+01 
      </Row>
      <Row Index="54">
        -1.6326984211501622e+02 3.4635908005360878e+04 -8.4479834303787793e+03 1.3354630352732966e+02 -2.9620193676710129e+04 -7.9164837306566536e+04 2.2111070153874345e+04 -1.0864085112810135e+04 5.2739702079223935e+02 -1.6645691575831734e+00 -2.6847381687725428e+03 7.0137284434437752e+03 -1.9214942068028904e+00 -2.3665987016111612e+04 -1.1062091173917055e+04 5.1834794965237379e+03 -4.3561927528381348e+03 -1.1360462562763132e+01 -9.0363073842599988e+00 8.9014200141946785e+03 4.0695688253529370e+03 5.3788869478012202e+00 6.4484237213134766e+03 4.3173376344218850e+03 -1.3106347074747086e+04 6.6662392425537109e+03 3.0875076008960605e+00 -7.1742680951319926e+00 1.6510052820128854e+04 9.5713299774657935e+02 -5.8655669421841594e-01 1.1151125502833864e+04 -5.3716564718354493e+03 -2.6091382270583999e+03 7.4354983692169189e+03 7.2390872546238825e+01 -1.6902139849607192e+02 -5.7102230078835601e+04 -1.1555922122383304e+05 1.2841068190551823e+02 -3.0991832225203514e+04 -9.5825124581627548e+04 -6.4012586832374334e+04 1.3595983798384666e+04 5.9235124200343125e+02 5.0878475180579699e+01 -2.2795389272583072e+05 1.3205958606838368e+05 -2.6669568961206824e+02 -7.2159954289115296e+04 -8.3657740161239286e+04 -2.2475245249022677e+05 6.7301886489595217e+03 -3.5108715265523642e+01 7.4604276082273491e+05 
      </Row>
    </InverseHessian>
  </Weights>
</MethodSetup>
